4.689254165212255465e-01
-4.677441844388198766e-01
-5.755550133255042944e-01
-8.721845486659683955e-01
-6.570273154164248952e-01
2.363035097055622702e-01
-1.973773534983766509e-01
-5.433424646391370461e-01
-9.810434457878020043e-01
-1.182058457692962139e-01
1.344282255957655603e-01
-1.269327120101866546e+00
-2.795237376539491669e-01
-3.225490943864071230e-02
-1.053912042591523823e+00
1.843642494284643829e-01
3.929153473453980139e-01
-3.018386657830807729e-01
-1.103543976839437946e+00
-1.025109239198268796e+00
-5.434974242676553734e-03
-3.020828073519854495e-01
-8.089509107109031927e-01
-4.955669003532572336e-01
2.832223325852731982e-02
-4.546116252609219005e-02
-6.517036783379410725e-01
4.214327202578911358e-01
4.559306288230064452e-01
8.578040696450309199e-02
-5.106397993378867239e-01
3.001068334638860025e-01
-5.732676034777846041e-01
2.448072566379869142e-01
-3.176100315625705606e-01
3.401215387429800119e-01
2.618976460746320206e-02
-8.507096609222538630e-01
-1.176505278167578640e-02
2.951668519931454071e-01
3.799330897119870265e-01
-6.919431720617769122e-01
-2.267700208436196629e-01
-8.418585806875922284e-01
-1.829514559278174468e-01
-5.509397008502774362e-01
4.611368026408067533e-01
-6.718720870357932640e-01
1.621589244225097592e-01
8.629369140875102762e-01
3.732133596039390738e-02
1.162092596632965824e+00
-9.264112033609563923e-01
-5.034777332974630371e-01
-1.810476380867509949e+00
-2.061199690151074015e-01
4.577735777942646411e-01
-6.903150230084189598e-01
-4.553126137072678326e-01
-6.525447966552406776e-01
7.540657306514129965e-02
-7.834900586377526732e-01
-1.320563254194721425e+00
-1.462991400877312831e+00
-1.954675055174022402e+00
-3.160012252211876205e-01
-1.653241948719293697e-01
5.918433533692219611e-02
-4.775852590893033822e-01
-1.480546317759819930e+00
9.929962260938537955e-02
2.266729861863124862e-01
-6.032776075959853657e-01
-1.677822948364288580e+00
-8.223206637344835368e-01
1.075932263296218022e-01
-3.055921445890975585e-01
-9.798715578358921929e-01
1.967705268597584600e-01
-4.310806518413709543e-01
3.182314080580278537e-01
3.474553270109045390e-03
-2.981167232751953389e-01
-1.580532025632957471e-01
-2.557651640689772576e-01
-1.401212084941750202e+00
-6.145818244067730030e-01
-5.094308756835566054e-01
3.957362573927653560e-01
-1.154245121159194420e+00
-1.354119306325546335e+00
1.319640141664157607e-01
-7.694705049831663812e-01
2.866375098145182432e-01
2.165946664988950554e-01
-1.526705980723614520e+00
-1.616034182312759693e-01
-5.292003957857808194e-01
3.267847772147292607e-01
-1.769246516513479861e+00
-3.590015618602959702e-01
-1.165560089867574423e-01
-4.105477638578536315e-01
6.020901218416815220e-02
-4.326712975715675258e-01
-6.694736758012376221e-01
5.666850641638228048e-01
5.451074379321795282e-01
-1.810277011449722695e-01
-5.080404347771859674e-01
-4.021498438591902258e-01
5.764500254155114911e-01
7.535824016023669192e-02
-5.228167241804643206e-01
-1.061713980194238793e+00
-8.690350220994992325e-01
3.976268858193350297e-01
-7.726135202085446796e-01
3.292072512179823329e-01
-3.117591503467799785e-01
2.652003428530912421e-01
-1.605206697459761855e+00
-2.557567145426074884e+00
7.161899612347197852e-01
-3.269684377761564731e-01
4.086633168730943177e-01
-4.575774444164659727e-01
-1.045031984511826773e+00
-2.519880518378651679e+00
3.999272188018360152e-01
-7.656627796740825831e-01
5.748760296300925443e-02
-6.012281738012742460e-01
-1.076215475197749516e+00
4.191950114692638008e-01
-4.913360068584642915e-01
-7.142941966257961017e-02
-2.562674902401730126e+00
-2.064565715419552083e-01
-3.609591667789688874e-01
-8.329814440218744620e-01
4.838626157751914347e-03
-6.345883317313666394e-01
3.192529927707228321e-01
4.097921956792632825e-01
-6.583943714458551089e-02
-5.275905729915333353e-01
-9.880359692162069551e-01
1.237874994083350277e-01
-1.722907626317629060e-01
4.351733038770659590e-02
-9.078441086534683180e-01
-6.857844795200390697e-01
-2.253386172788750808e-01
-1.375391465049627948e+00
8.804665731135363771e-02
4.430214179968453569e-01
-2.024550478959908362e-01
-4.370784972360584192e-02
-1.028955639478155576e-01
-1.059047589353503627e+00
7.543074670635162293e-02
-6.519798091791872974e-01
-1.634834365002350687e+00
-5.179180793494824186e-01
-6.408946361553174986e-03
-1.032549257382162411e+00
-1.322079592139125737e+00
-1.251483586379402491e+00
-1.167041974586228992e-01
3.678776334852887353e-01
-8.639732440290968096e-01
-1.257771405901725315e-01
-1.344172192876423200e+00
-5.657985648378639071e-02
-1.924050661040899390e+00
-4.912010651981715825e-01
-1.258305333706946083e-01
-2.865208099921318641e-01
-7.449623964642041463e-01
-8.807793678267398230e-01
-2.748537811919016249e-01
-4.224828679908506079e-01
-2.453854163746376771e-01
1.846822692041379943e-01
-1.083098898901083684e+00
-5.987534637705650420e-01
-1.509138044485163199e+00
1.804973956700781923e-01
-7.501706668861575222e-01
-8.152655101861909781e-01
-4.793799914685525909e-01
-3.104992167610542420e-01
2.310444851921691634e-01
-1.112573535948724546e+00
-9.704483594483478415e-01
-1.156182372730407470e+00
-5.378647440772091892e-01
-7.803269209153201880e-01
-1.092579460284128119e-02
-9.792348539828020157e-03
-4.789415028876500835e-01
-1.022113617539501806e+00
-1.012680173643646375e+00
-4.822211415645822896e-01
2.520096447338493126e-02
-1.715557643024398393e+00
3.694038065691721551e-01
7.130086371505321985e-01
2.152882934448967500e-01
-4.165351604605257441e-01
-9.907581975300924215e-01
-4.694142395214081498e-01
-4.023058819494527705e-01
-1.772739306546935234e+00
-8.515526114779091438e-02
3.179991100784603786e-01
-2.394257353848472103e-01
-4.350888280192302116e-01
-1.595900726819498017e+00
-9.810577143819219081e-01
-1.752383909555620178e+00
-6.443791116544528297e-02
-1.721958612462949623e-01
-4.082726208529492418e-01
4.543182003824101645e-01
-9.344784714336827613e-03
-1.320371989895477771e+00
8.069821804624606465e-02
-2.879056452920089604e-01
-6.769004513116279043e-01
-8.238704812728221416e-01
-6.990638122030019552e-01
-9.836329907496345060e-01
-4.040670979409438646e-01
-1.084428799444208391e-01
-1.532445109566436869e+00
-1.635819084482811325e+00
-6.476137688805443382e-01
5.625692893953357920e-01
2.607101750382322392e-01
-6.946615455316139665e-01
1.250405408942505958e-01
-9.829649425746216362e-01
-2.991507868006010318e-01
-3.295251433326681356e-01
-1.190897957129754131e-01
-4.850581682323624189e-01
-1.391096907687591866e+00
-9.131540377677143105e-01
-3.903235504904994935e-01
-1.219595658183734610e+00
-6.957808855520343227e-01
7.602735370986747343e-01
3.169900640396158820e-02
2.478101846378214235e-01
4.521472916358168503e-01
-5.367457219724396378e-01
2.781132869682886866e-01
-2.285151563852356738e-01
-8.676435520945086077e-01
-1.466696462111670984e-01
-5.389419367566663371e-02
-6.313259710920899881e-01
-3.823847142862427662e-01
1.034745485036911161e-01
-7.199249705508320440e-01
-1.257183287470427402e+00
-1.043933583265638898e+00
-9.337227275851195385e-01
-4.129341896416701130e-01
-6.548671874511626800e-01
1.900642655865865394e-01
-4.449997572006799545e-02
3.087927961279528927e-02
-3.840599320193281985e-01
-5.275248677702548683e-01
-5.646489759149866394e-01
-6.489579608815071454e-01
-5.058006796782578141e-01
-2.973483871336179973e-01
2.955510358988635566e-01
-1.388060090397561730e+00
-3.598880201893047137e-01
4.549986987525048709e-01
-4.702800089421319552e-01
-7.948048671992412606e-01
6.221009558612280443e-01
-6.127696270991072058e-01
3.691080001072135630e-01
6.058722765992418519e-02
1.597497352810369753e-01
-2.813751734253173709e-01
1.301853475934857118e-01
-6.754723702234219918e-01
-5.006868319607786777e-01
-1.081727594853264751e+00
5.988595810419293786e-01
5.115137579840038917e-01
3.713758150283547610e-01
9.987858992584654205e-02
-5.709311889551892394e-01
-5.677632302737102288e-01
-1.114406532244890835e+00
-6.774843462121201698e-01
2.179529467378379937e-01
-9.457851005169175540e-01
-1.932686522868782009e-01
-4.760968143131123487e-01
8.890550966439095815e-01
3.114308521867266144e-01
-2.322752037609164544e-01
1.621108942259595898e-01
1.320141236301344279e-01
1.978899479251904070e-01
-1.099390072783898109e+00
6.875039422106127285e-01
-9.707858200917901526e-01
-5.641013053898645824e-01
-3.075677787603546820e-01
-8.782757215905572235e-01
-5.242133060401941158e-01
-1.103240332265970736e+00
-1.082186212845396706e-01
2.873227074988632390e-01
-6.169632289989111090e-02
-7.103558966005275588e-01
2.442288319246850581e-01
-7.173226435119062216e-01
-1.488888137402606393e-01
-2.881970919761264738e-01
2.285009077015298651e-01
3.473648355547874489e-02
-1.218923840750362197e+00
-4.459387387685201376e-01
1.787621483344336848e-01
-8.844891431111430447e-02
-2.691792514013891524e-01
1.216882187639588553e-01
6.693916756557526104e-02
-2.501958262031655500e-01
-3.120114386304209120e-01
-4.749754193380993361e-01
-1.982538120150286187e-01
-3.277874549406544213e-01
-1.236978550726384407e+00
4.146395034261840529e-01
9.498692966683044969e-02
-3.815194326566176408e-01
-4.205005642258627940e-01
-1.103223340448332035e+00
-1.992013622101315717e-01
-3.601725311602615442e-01
6.273961708598824183e-01
2.051721906985108368e-01
-5.257010268476749459e-01
-8.156935719335695056e-01
-3.510974054101755892e-01
-1.467252084461129202e-01
-2.306855617677372461e-01
-6.687929757611823511e-01
-4.149616706328567717e-01
-4.106561824115451120e-01
2.360595055053060776e-01
-1.491775545708260431e+00
-2.733226020103203813e-01
-3.665924098479629301e-01
-1.026970854381364651e-01
-6.736573388644571114e-01
-7.529809770987874185e-01
-3.011753043872325911e-02
-3.942700697242311203e-01
-6.667842102192429454e-01
-3.654534062386740612e-01
-6.956769031315775953e-01
-4.030488567084496432e-01
-9.497624503629296111e-01
-9.089779570701139733e-01
9.339347608177413218e-02
1.911709214216026909e-01
-4.673349783389295353e-02
-3.157661951940906597e-01
-6.997149557618488336e-01
-1.741917856350220450e+00
4.208379253886154053e-02
4.157143189166765951e-01
-1.098406972614062838e+00
4.195095517656269313e-01
-5.535700894740105404e-01
-5.719608954074442142e-01
1.769487143407639240e-01
-1.466996531156520733e+00
-1.290879058397746346e-02
-7.074961775838388700e-01
-4.188478013377311404e-01
-5.067471917106596280e-01
-7.092583073098227553e-01
-1.116033124916302688e+00
-2.476581725920828578e-02
-9.841102247562003580e-01
-9.489407009998173104e-01
-1.067456022059433574e+00
-1.183180300233313442e+00
-8.627591649763799442e-02
-1.075423997866492787e+00
-1.429240223357170603e+00
-1.138097408163810442e+00
-2.713000207654683860e-01
-5.138276552865669311e-01
-5.403609232386490380e-01
-1.010187223682708746e+00
1.905907917663255194e-02
-5.739708652741719597e-01
-1.199428799542320068e+00
3.270579145145066091e-01
-1.181642058299835485e+00
-1.174714229429855594e+00
1.130403300825378043e-01
-1.080683746358516162e+00
-7.663049991469143007e-01
-5.574833849448693757e-01
-9.998838909319949231e-01
-8.762653541000173796e-01
-1.498576039215332667e+00
-9.491811951554141036e-01
8.821096032174596813e-01
1.636883930498915785e-01
7.465395806109131893e-02
-6.827095968206607912e-01
-2.081622450021802517e-01
-1.262699255947197674e+00
-9.207636989935275018e-01
4.704011765791588084e-01
-1.094853843283772221e+00
2.668284586304766823e-02
7.362262431820061626e-02
-3.288984908082030478e-01
-4.108535104790890236e-01
-2.963363048298908176e-01
-3.532125207214868445e-01
-1.073565196145611494e-01
-1.010901244272084387e+00
4.118919842170961076e-01
4.331891650642646918e-01
-3.652448062905542248e-01
-8.141622258540825996e-01
-1.309793860369130147e+00
-2.572675014505459989e-01
-1.005491382624292385e+00
-7.949171582692963201e-01
-8.367484426493054794e-01
-2.510267614018421578e-01
-8.035798095090205262e-01
-4.371332513906406314e-01
-3.485481245733876299e-01
-5.455760069626405251e-01
-1.768138157336461180e+00
5.897632348371543293e-02
-9.289987435702755647e-01
-1.337080551413448948e+00
1.712907643618445663e-01
3.455634795852214336e-01
-8.478117107530639407e-01
-1.047446472685105989e-01
-1.086115942317081196e+00
-7.967649520051484080e-01
9.145740889972557575e-02
-1.966590388732230299e-01
-5.358196531233110071e-02
1.754353243249947014e-01
-9.333190336698943268e-01
-1.100701592194021305e+00
-7.290023497875467440e-01
-1.137622284689040475e+00
-1.065098274932675670e-01
-1.129891618536194242e+00
-3.282127982549740697e-01
-2.826557202476888686e-01
1.350021082317389987e-01
-1.618902769863349040e-03
-3.409789200594859904e-01
-2.278486451523571987e-01
-4.010502575564175443e-01
3.618216362095238448e-01
-9.299391302592302511e-01
-8.253727688273778673e-01
-2.115316014740166728e-01
1.035094035444348720e-01
-1.621555025719122467e+00
2.217387665034831201e-01
-6.458655456636258618e-01
-1.090492558985526328e+00
-9.707133651764597582e-02
-8.945995559455789670e-02
2.680259498307477894e-01
3.530122538310480340e-02
-1.131742329077176645e+00
-5.660667081044509219e-01
-7.360289543319747940e-01
-4.884744859546572004e-01
-1.026953952371953138e-01
2.929702618743730835e-01
-6.986527982990298202e-01
-4.526115857046555391e-01
-1.098420451679563259e+00
-1.681473509223054386e+00
-6.996741186044277416e-01
-2.192838439935988482e-01
2.801533896253493878e-03
7.257572032837666942e-02
-2.169215034209298967e-02
-4.848142383123359989e-01
-1.049115950816207343e+00
8.420767064477822084e-01
-9.658876618155455285e-01
3.685412177639258435e-01
-6.680902963612332657e-02
1.035147933545126075e-01
-5.436787093208597099e-01
-8.967927176277996626e-01
1.954043248148853718e-01
2.703355167517784152e-01
-3.804656233820409295e-01
-5.049449926893485596e-01
2.165161001795804230e-01
9.341068152841962291e-02
-1.373248027542230743e+00
6.135742380562592135e-01
-9.789674016297037484e-01
-2.086354303106154606e-01
-9.828293581401981172e-01
nan
-1.693465534752633728e+00
-8.290154704560979138e-01
-1.051588528531059108e+00
2.686574486774094273e-01
-5.946308026782844980e-01
7.793151519873307842e-02
-4.229912973932212772e-01
2.175581448412195473e-01
-7.841090771136106641e-01
3.104702410657140255e-01
6.313150377332735763e-01
9.455840623786264665e-01
-9.775257685201618196e-01
-1.023149042015544463e+00
-7.808289161927853272e-02
1.247758423053953007e-02
2.355805505180622872e-01
-3.235203770070537166e-01
-1.387153591859264790e+00
-4.448993970841309542e-01
-6.433725642436608494e-01
-1.927967144264283381e-02
3.307694133404519565e-01
-6.683395065454230677e-01
-3.040964057934021914e-01
-9.148923707632113057e-05
-4.726121807845089506e-01
-5.701445576430647783e-02
-1.383248786916920492e-01
-7.451323689021644991e-01
-5.636817905672738549e-01
-7.335327053189724111e-01
1.433377339202370537e+00
-1.562580056208604073e+00
-4.076330616009616881e-01
4.772766160711147676e-01
-5.515315868416925671e-01
2.781115261257238180e-01
4.128707633850256520e-01
-7.154393905626914574e-01
-4.809853038877056064e-01
-1.407782697213729450e-01
1.170912031738752801e-01
3.765073151396748363e-01
2.660699765088414548e-01
-1.578582951672104384e+00
-4.099274437923906139e-02
6.800107879105358188e-01
1.852993280695435230e-01
2.058679404287996895e-01
8.433813492184230598e-02
-1.754919263036589308e-02
5.337339287022656587e-01
4.642928524185970796e-01
-5.978954345958257255e-01
-5.633429260625043566e-01
5.511819475579003980e-01
-5.518250269822942977e-01
-3.625667908620289204e-01
-1.368940854208602786e+00
-2.482223260624754069e+00
5.971347595535798636e-01
-8.654813637775248258e-01
-1.390753974832547313e-01
-1.152686374122927404e+00
-1.101589567586278573e+00
-7.455157203554985124e-02
-8.391388543354102447e-01
4.309511297569967314e-01
-2.963370033835563411e-01
1.250906822885106406e-01
-1.319382680391624874e+00
-1.068709688756989795e+00
1.492169505484069181e-01
-1.071903793827201579e+00
3.800876691974603983e-01
-1.089600791208179764e+00
4.485150948804869642e-02
2.586984547495604914e-01
-1.721915699452468973e-01
-1.483858180269540750e+00
4.777038491555110622e-01
5.534523437888767827e-02
-1.904781359333092450e+00
-4.196985437317548445e-02
-1.065637986025608663e+00
-3.360424745984834649e-01
-8.864588237757635714e-01
-9.448175446322980564e-01
-2.584402661612039243e+00
-1.579033489583131278e+00
-1.585034438917754640e+00
-1.562706954996341269e+00
6.598348050364884199e-02
-7.514131449443800514e-02
-2.488509083292014812e-01
6.600647423463298358e-01
-1.089699324698755190e-01
-1.564890746119086185e+00
-6.601555583320316556e-01
-4.548032516774422884e-01
-2.557285905137788529e+00
-1.007416183504797003e+00
-5.578037397991136848e-01
nan
1.505421523400956030e-01
-2.069207874642276401e+00
-1.910645803511288876e-01
-6.555165204082655794e-01
-1.833660196787239571e-01
-5.785240687517557712e-01
1.392531614019092701e-01
-2.263217676501487197e-01
-1.487587800568537677e+00
7.895833649515024977e-01
6.141820031674009028e-01
6.252171577731009400e-01
5.923302786774656964e-02
-1.555047621737493113e+00
-1.018304010655467495e+00
-5.733229879733930945e-01
5.788738422057180255e-01
-8.022754714389658537e-02
-1.553888503456854198e-01
3.572842238586368402e-01
-5.904392433111130822e-01
-2.569698642309234948e+00
-2.750867674129359175e-01
-5.551710507001593742e-01
-1.330309016356546081e+00
-1.595390285184663082e+00
-5.352748799475727237e-01
-1.455329765584067792e+00
-9.961512495716342563e-01
-3.851575186048974975e-01
-3.551513963780879024e-01
-9.546463544382983724e-01
-1.481002466501297077e+00
-2.692275703197699044e-01
nan
1.517789290249112188e-01
-1.836651970398202716e+00
-1.312330018018329714e+00
2.034740596153211400e-01
-1.077430488521538221e+00
-5.041577023905974286e-01
-2.109489692436821440e-01
-5.928857764345923931e-01
-1.220683881549327054e+00
-1.096043647015394695e+00
-6.717344913514665394e-02
3.147460004850462512e-01
1.954793893709831989e-02
-8.468512553188468628e-01
4.038438950378035464e-01
-2.355372430170390718e-01
-7.481124094427371585e-01
7.539986551971701312e-01
1.798429948253059407e-01
-5.655863173902495600e-01
-7.678870586262803721e-01
-5.549188216061951007e-01
1.819367027028646056e-01
1.466149394780980331e-01
-2.565434240455972237e+00
-8.345473982672817481e-01
-1.023641437199109161e+00
5.247621798983521241e-02
-5.925660130067457176e-01
-2.978652980515224535e-01
-5.149856399447907407e-01
-1.582598699099553530e+00
4.099753038666167360e-01
-1.164354365383248213e+00
-9.653588620653549279e-01
-1.492251323645994443e+00
8.586869260865058751e-01
3.623593912465947198e-01
-1.688757119360697390e+00
-5.031132591891230854e-01
-7.290142431574085924e-01
8.069773712265051469e-01
9.455948759837584650e-02
-4.152899981895238901e-01
-8.003733410940282456e-01
1.819580041980816409e-01
-5.096182448817808686e-01
1.960380747797625112e-01
4.450075212250162449e-01
5.112166735860577127e-01
-7.686199793661895041e-02
-8.285306850414876356e-01
-1.399979125720642426e+00
-5.862738429889048364e-01
-3.224513259744675731e-01
-9.952418470353496804e-01
-1.162405046448593271e-02
-3.474722184986009932e-01
-8.225616752783873609e-02
1.119900438294147982e-01
4.084914501896340089e-01
-3.917201919331790849e-01
-1.562103574511729320e+00
3.684487353672579180e-01
-8.965232908179527893e-01
-1.675784886852071665e-01
-1.916006803358316080e-01
-9.783761171195441975e-01
-4.380715908613043164e-01
-8.719053332153022806e-01
-1.368224318636790948e-01
-5.355031595397682365e-01
1.399205471166146353e+00
-6.161656573284707283e-01
-5.320471906046181365e-01
-5.753865722813917838e-01
-1.056223014393238013e-01
4.152332595103385149e-01
-9.396041754248481981e-01
-2.449118231651461752e-01
-8.919913814609994329e-01
-2.947183869604887430e-01
4.813049773332366277e-01
-5.247852484408499496e-01
-1.558665964030637452e-01
8.169773968395406538e-02
-6.140551605812932801e-01
-1.327014055284349466e-02
-3.996264833656660298e-01
-3.876173216448804970e-01
-3.417070580957301540e-01
-1.096755192331688278e+00
-2.133301909566273302e+00
2.979457238889126058e-01
-9.676602628055869237e-01
-5.730302987221532751e-01
-1.961197323133342385e+00
-1.041078133001184902e+00
-3.378495439376578147e-01
-1.585651925954376651e+00
-3.493468338327178069e-01
2.606244471578038069e-01
-2.570801169033213984e+00
-5.512436390618107307e-01
-7.846949158349091347e-01
-1.285899271932992027e+00
-6.887322443960548490e-01
2.150137660170255427e-01
-1.410913758725677869e-01
-1.324140386990662721e+00
-1.584537192185527799e+00
-5.554817563094037736e-01
-9.810959470822759876e-01
-1.565556516779849638e-01
2.240722731986148630e-01
-1.335481865448365113e+00
-1.028690642355770679e+00
-1.316470087305811609e-01
-1.030404406489235258e+00
-2.562089352435202194e+00
3.593706637174338275e-02
1.352161339398136874e-01
-1.739678002251950462e+00
-1.305960018629105379e-01
-1.138116736904737358e+00
9.994669557373017654e-02
-9.950740147351680442e-02
-4.119636589100262314e-01
4.209769040164462739e-01
3.876488793922165665e-02
8.571252824173390961e-01
-1.565327005690233975e+00
1.981817994677559022e-02
-1.321681452879341356e-01
1.255685903956832994e-01
-7.845076205812198666e-02
1.396862881651312061e-01
-1.565345892723396526e+00
1.970652442666697146e-01
-1.474221873905336766e+00
-6.008240059562836022e-01
-4.469872688650685655e-01
-1.446659478928087550e+00
-5.770666004293252271e-01
-5.039062699219205577e-01
-2.392925953556301610e-01
-6.647856990109716202e-01
-2.106060686970263052e-01
nan
-7.872484527511961483e-01
-1.394690770690258041e+00
-9.861297690932828708e-01
-8.449551654976319437e-01
-5.929332520360888203e-01
-1.049281221273490994e+00
-7.675525247051936395e-01
-1.062076345649450859e+00
-1.419399018808080060e+00
-1.092889183185495661e+00
-1.274407906693710180e+00
1.977289505564757133e-01
3.611419835982589144e-02
-2.551988731944334621e+00
6.775205532618763793e-02
1.772757269498520527e-01
6.883739512440751884e-01
6.518991214547790181e-01
2.200887248688661868e-01
3.837532502654642658e-02
2.788851584321465071e-01
6.451513634265174657e-01
8.230910122760528580e-01
6.891188768252226593e-01
5.162423232346322610e-01
3.371935158900724039e-01
7.418979413881601204e-01
5.020524964371338994e-01
6.535423303173509835e-01
5.647335988860001654e-01
7.683296715362476492e-01
7.676821918560644553e-01
4.941571921316973426e-01
3.516809556896185462e-01
5.908663056261147517e-01
6.462345211801467926e-02
1.704097444034321784e-01
5.876052938094554756e-01
3.370302969632654744e-01
2.876773073282075655e-01
8.800285506918160694e-01
7.624491133111153118e-01
4.263880197584513088e-01
-3.777339207919478969e-01
6.706601457404053335e-01
4.131817073877926960e-01
5.907020810944674238e-01
2.041189027531252753e-01
7.118245959048060678e-01
3.303460608542031496e-01
2.926802724285985646e-01
4.460047140519399766e-01
3.564542431895222768e-02
5.152360076956345736e-02
4.837562015097739421e-01
7.076638864775136595e-02
-4.482765791335695249e-02
-5.326972585225943080e-01
3.347519228118274737e-01
5.260469192236184865e-02
5.935699310500976988e-01
3.755300602355944872e-01
2.286770849347195544e-01
5.111044870229268788e-01
2.974846306016525888e-01
5.097701227841886507e-01
2.287540926315816125e-01
3.851649728595288313e-01
5.912667905592656759e-01
6.351131980464990168e-01
1.097888189639304422e-02
6.920500341578390557e-01
6.505413560998264400e-01
5.523723883565487824e-01
-6.351782603148628525e-02
-3.734516420498224520e-01
-2.300899181653821290e-01
2.403032204242998571e-01
-1.173307078388607511e-01
-1.455401117279611078e-01
2.007465595189167340e-02
-9.073843797474287487e-02
-5.542758336330830260e-02
4.895941866756026717e-01
3.646907695349503320e-01
-3.346027482192044933e-01
6.269305981711176083e-03
5.873982020473529353e-01
-7.499038533459233269e-02
4.667088114222974204e-01
-4.595050724063198810e-01
3.683219944765732112e-01
1.366730477642124353e-01
-1.993155652605240968e+00
-6.699145697083204194e-04
-1.586012733366238603e+00
4.347416731256415479e-01
-8.115625827021701877e-01
-3.327408823154285877e-01
5.154673232617067863e-02
-8.842883804603663966e-01
7.073446454651580173e-02
-8.469122095784607784e-02
-7.279227115036196460e-01
-1.566984108399636644e-01
1.389931482432795740e+00
-1.029804967240602220e+00
-5.734284813548527066e-02
-8.762046432871868351e-01
-4.360328474692729550e-01
4.779893246496064174e-01
-7.158857631714599101e-01
-1.252186769596946858e-01
-6.524540137112188054e-01
-3.276543064426566954e-01
-3.541464241457913387e-01
6.802783110400261180e-01
-6.181104058235405985e-01
-9.634497306062046462e-01
-1.229534808094273179e+00
-5.981301242666029472e-01
-6.242471379586377322e-01
-2.604918349311403092e-01
-4.409985585660738949e-01
-3.905025647698853741e-01
-8.710741467341879263e-01
8.622104087263177119e-02
-4.933347397280075930e-02
-2.051252800291525902e-01
-2.964232833501067033e-01
-4.093048904846950942e-01
-9.652974305779810082e-02
-4.279634145531112099e-01
6.718380848101468406e-02
-3.792221872095538071e-01
-8.745861468134624728e-01
1.097827356605543953e-01
3.785476890844027276e-01
-3.550904262039102366e-01
-7.335124616959370902e-02
3.764913828607981405e-01
-4.299620906048149949e-01
2.469415655915636887e-01
3.206022063529435917e-02
-6.158782729385841037e-01
-2.025718307588653955e-01
3.287197234669964052e-02
-2.185182126028464844e-01
7.383808180171537450e-02
2.916568684838913295e-01
4.513888354546150006e-01
-9.695230892817394697e-01
-2.556674749908744992e-01
1.303027727870664787e-01
-2.953815541406903944e-01
4.031046625315621301e-01
-1.695005309892758105e-01
-7.743065306724272734e-01
-2.199171088446581768e-01
4.813048166783475135e-01
-1.644416491484789467e-01
-3.165736651475278274e-01
2.595771988874991387e-01
-1.424376100397686529e-01
-7.655797938207303810e-01
-2.239697934707047533e-01
-8.725027657145112414e-01
-4.086115118454548140e-02
-1.069523509622092618e-02
-3.668871205123722667e-01
-1.808871326790953415e-01
3.220906415358602004e-01
-4.766203023164524571e-02
-1.076004613953194244e+00
-4.089674470983233334e-01
-7.215598631010948782e-01
5.287538884058948785e-01
1.984029225329324575e-01
9.082721349333669481e-02
3.934069931025625522e-01
-5.952277459417857353e-01
-1.781495140804495725e-01
2.189124049029704255e-01
4.174954506287891220e-01
3.431199505014452256e-01
2.433595618010137573e-01
3.345497288038172812e-01
3.990604064695277287e-01
-2.294724027898870089e-02
1.603883567982440084e-01
-8.261630018598666025e-02
4.842669815743908535e-01
1.587060533457173295e-01
4.704871381154699939e-01
-1.028722914560878249e-01
-3.268084703230933474e-01
4.911481746313533514e-01
4.279717995850650936e-01
-8.023605708317295138e-01
-1.034663793353625821e-01
-1.981895249943496640e-01
9.592481774011139828e-02
2.884929172668390662e-01
3.841219777760197518e-01
2.837614109356558778e-01
-1.195598093010688867e+00
3.573129919475237504e-01
-8.266469137073255702e-01
4.466288629368997398e-02
-1.614791183011288211e+00
3.102509138730701332e-01
6.061029053936346500e-01
-1.803964841713280531e+00
-5.814881477768500950e-01
5.739439628879107191e-01
-1.060476843049821677e-01
-7.115672723670977140e-01
-5.156559655962779098e-01
-2.562892900127685447e+00
-1.913771700836587319e-01
7.043889428905187877e-01
-1.562977408093512155e+00
-2.130335545708200995e-01
-9.371078268853872892e-03
-4.041483536933481724e-01
2.625344662826236131e-01
1.423554992615002068e-01
1.558830274869851262e-01
-1.271219690292510140e+00
2.765940002125785030e-02
-6.788167761779383413e-01
-1.852441851676936979e-01
-3.675726770379708075e-01
7.042860443358122113e-01
6.099477133670265783e-01
-1.594111573455738950e+00
-5.644738446261968745e-01
-4.363564470035538045e-01
6.771813474564795099e-01
2.611405302346458401e-01
4.369742112671879397e-01
-2.461743861267934541e+00
1.457211293146880859e-01
-1.561939503213367830e+00
6.902559515886792507e-01
8.616970378266138875e-01
2.808117225328120650e-02
3.044308048657889954e-01
-5.602395497313054917e-02
-1.792978505455465055e-01
-6.765213162350400267e-02
4.486743050284799222e-02
-1.261291744845547180e+00
3.507866569680319624e-01
3.109312451394138921e-01
-5.798638142010474894e-01
7.146018808837328873e-02
nan
-8.296315620993683915e-01
-1.386189296760922174e+00
1.936279922666175601e-01
-1.738879356119060748e+00
1.678489189865609854e-01
6.760774814134504762e-01
-3.369843384183631718e-01
1.852695090710476111e-01
3.714085832588304159e-01
3.780134335085825192e-01
3.764263819182676607e-01
8.435030004533582426e-01
1.608627694221966276e-01
4.130636993070520568e-01
-7.583825443447017589e-01
-2.678944102486180423e-02
2.492253311565389429e-01
3.294053563049095801e-01
1.360525459991484241e-02
1.956478472075084407e-01
3.171148372200588983e-01
6.556381931788978212e-01
-5.466279703888562991e-02
-5.095782197290229520e-01
3.812200852507077742e-01
7.411100740470959458e-01
-1.644774763459269096e-01
6.141010703516315283e-01
6.272214463180093569e-01
7.832763177192968440e-01
4.595938292095835265e-01
4.526069671378440407e-01
4.613749568495205677e-01
-1.952810504578224651e-02
6.503950715030801799e-01
7.536061409587230253e-01
-2.949263077921969733e-01
4.233032707034864450e-01
8.020676192978710706e-01
6.310437839353943978e-01
4.424664216415110651e-01
3.368747467545220586e-01
4.837038674004472960e-01
8.364480423429319078e-01
6.144496961364395160e-01
4.780907207069372555e-01
1.567030128102420150e-01
-4.956163684561714147e-03
6.299571751237021955e-01
6.072783416138627377e-01
5.832837391101575175e-01
2.802532206686939031e-01
6.955869835834306292e-01
4.633310301283431465e-01
6.963476488992997870e-01
6.835618366413471758e-01
5.859201152430988380e-01
4.374828090626984856e-01
2.746871344448931218e-01
5.750342416237659293e-01
5.073605262681158967e-01
4.409031043252479298e-01
6.308360117540044720e-02
6.690336291007676905e-01
6.748122135448835213e-01
4.913058377364828977e-01
6.068095085528689703e-01
6.532343876763831991e-01
3.952189379231051403e-01
4.700905108065212556e-01
-1.918959256155737814e-01
5.553372641544855881e-01
3.568905010857300053e-01
4.383575374402697844e-01
3.946597667308514024e-01
3.970029814012680514e-01
6.123960563904271570e-01
6.207585442960931177e-01
3.646082524354984367e-01
7.422375453920939670e-01
4.884861735005526229e-01
6.988134694233892885e-01
5.191677887479121400e-01
6.599992697499029726e-01
-1.707670622698843899e-01
5.874654511956900471e-01
3.044951985236770686e-01
4.590585067646025808e-01
4.394780288924796663e-01
7.232758288558504001e-01
1.765475213089907347e-01
7.433000538617418052e-01
4.940538665821339048e-01
4.240418771897435657e-01
2.867483475380147029e-01
4.585664539219605484e-01
6.989615472765444704e-01
-1.049880749671638913e-01
5.698345118035174073e-01
3.148003579274786801e-01
1.906454109526647678e-01
6.420705795980311548e-01
4.338477789059426160e-01
2.776155794174307023e-01
1.800299176624252651e-01
6.239591279163212434e-01
2.806009189917400559e-01
5.919312236481458767e-01
2.434779603615800925e-01
5.227751582348857395e-01
4.463364792452298446e-01
2.642904295410654081e-01
5.687769800516432328e-01
7.092044077024353133e-01
2.019468127956521308e-01
-9.303995279695752296e-02
4.523498012849180849e-01
5.465566528562142423e-01
3.803481118716920406e-01
-6.149997650689294215e-02
4.700052528397813401e-01
3.764144847853748144e-01
5.060344190883335758e-01
4.653249880888238876e-01
-3.007985085392424901e-02
3.697645354960407138e-01
1.040889137732136649e-01
3.740906738161028922e-02
6.345602898587576757e-01
5.045460986090363198e-01
3.636269327191495870e-01
2.825836803872503467e-01
4.988328370691524349e-01
5.496025845077626704e-01
2.138380717075226978e-01
3.666924644707515724e-02
4.105318008873161673e-01
1.396998502642246842e-01
-2.566061459225781771e+00
-2.386099047068155343e-01
-1.450192485232584261e+00
-1.086062025543301779e+00
4.016493442025489968e-01
-3.870662864483011001e-01
-6.060549952087646020e-01
1.019409673673393329e-01
-1.825362037972581231e+00
-2.129517045801595732e+00
-1.932413679936906936e+00
-1.844030844458489415e+00
-1.525186499807130280e+00
-6.917335942578363150e-01
-1.702235608688160040e+00
-8.598371997483358342e-01
-6.708814881328183377e-01
-3.485357201930469606e-01
-6.156813000199371499e-01
2.695493633884637474e-01
-4.801548417714844863e-01
-1.847485730535275872e+00
-1.353521612974522448e+00
-7.661420955023250101e-02
-2.739568719788640361e-01
3.339366384399505283e-01
-6.815804053139740137e-01
-7.089825725205227691e-01
4.367732123576967274e-02
2.798753061415699683e-01
-2.648600289635107824e-02
-4.442364069458444309e-01
-1.754242100397726267e-01
3.633020523519527867e-01
-8.138198348197281939e-01
-5.267733379653413012e-03
-2.553159712292778494e-01
-7.573596341822953493e-01
-6.084234482132205857e-01
2.473212427682059955e-01
-5.654734526714787490e-01
3.901987591729556143e-02
1.888184333720161756e-01
5.575285479774455544e-01
-1.175961819749222093e+00
-1.054882796312895943e-01
6.076695867929585715e-01
3.830096624615159095e-01
-6.806706470990250279e-01
-1.024538108886379334e-01
2.738487434649987673e-01
-2.988418650451404313e-01
-6.021755537874250441e-01
2.104845136898980951e-01
-1.200328206222788102e-01
-5.164235440396407473e-01
-2.502148487404556310e-01
-9.061360950451482488e-01
1.939534172743693496e-01
-2.957959377399722034e-01
2.616862797845281342e-03
-6.759374337085872764e-01
-2.140965326661601886e-01
-6.838439418690102078e-01
-8.498451043140353711e-02
-1.631816188192522832e+00
-8.334365118374733594e-01
-1.942036167786969081e+00
3.634606948564818030e-01
-3.985128679813483288e-01
-2.563899149782193465e+00
4.118513855496174214e-01
-1.053439365911077674e+00
-1.808827224272246736e+00
-4.309796821090628449e-01
-7.414973656407407576e-01
1.350828153044005275e-01
9.063678311531281340e-02
3.546550843660756236e-01
-2.765912254630969458e-01
9.554930572518090248e-02
9.767047490292798950e-02
-4.268435590727470696e-01
-3.275314830248599596e-01
-1.169784581205060847e-01
-4.538439875815038493e-01
-5.301208800057278792e-01
8.090700750370431737e-02
-6.643971278879307052e-02
1.812042510208366486e-01
-5.823407113079046571e-01
-7.540581744823552368e-01
3.238139993898305757e-01
3.833007565409383144e-01
-1.775624955256808746e-01
7.581514367956093681e-02
1.232910049250053736e-01
-3.711242441149791849e-01
-8.302730916467944144e-01
3.109225853250543459e-01
3.637805451213443342e-01
-4.468741669603791267e-01
-5.947254041773625266e-01
7.792119515676394492e-01
-3.228600619649800718e-01
-1.299382079996097117e+00
-1.318140888639348862e+00
-2.540667097853115952e-01
-3.175676151077023723e-01
-2.590542913340664999e+00
-1.054976074458568780e+00
-8.614173165198220072e-01
-1.774005356115901488e+00
4.328892462417056608e-01
-7.135555336110883662e-01
-4.168296216387383790e-01
-8.395203513282331054e-01
-1.144124318154052355e+00
-8.705409678812218166e-01
-1.787158123179349578e-01
-5.171062919002973324e-01
-1.162632784681057740e-01
-1.447654887046998962e+00
4.047450669084544650e-01
-2.179617672145122975e-01
5.433641842229788299e-01
2.399791809908514983e-01
-1.280166386943605961e+00
-4.037312390341413759e-01
-7.217032990593631459e-01
-1.314359915958595915e+00
-5.349677052003376510e-01
-7.531014721162445635e-01
-3.018716201895208506e-01
-9.377371531962034323e-01
-1.061973239497417287e+00
-5.803590000330176579e-01
-2.309017724651715175e-01
-1.110511379938861759e-01
1.714587959935388317e-01
-1.026129963179667870e+00
3.772643503002744425e-01
-1.851670178981097425e-01
-2.642695162021047040e-01
-6.905037907265346719e-01
-1.255497403617020113e+00
-5.099072387097717263e-01
-1.431219284014577653e-01
-2.498806793802442472e-01
-4.432454366861610651e-01
-3.162916889893952477e-01
-2.472676888124605010e-01
-8.770135215488407132e-01
1.128892272684891840e-01
-1.463112266397690597e-01
-7.320902772355620813e-01
-6.043862992818704871e-01
-7.153623436882023956e-01
-8.726236800300700702e-01
-1.753293559497763665e+00
-2.568999371746020447e-03
-1.253557125265207128e+00
-2.180481902371738112e+00
-4.311604818306661868e-01
-1.400054195680215496e+00
-5.263214632902079027e-01
-1.389715333709147682e+00
1.706395694919768946e-01
-1.036745033100419766e+00
-4.968758621258704267e-01
-1.202091244783810575e+00
2.428808469798049777e-02
-1.741425958766334436e-01
-2.358368097072248704e-01
4.371886854150432850e-03
-1.067295095107358316e+00
-5.207513736548365253e-04
-5.868067844589394122e-01
-8.097671205470909905e-01
-1.046107562205720098e+00
1.060988918720473101e-01
7.635889581427025841e-02
-2.159693155154768229e-01
-1.649161233953685690e-01
-1.189501644436874006e+00
-1.143838525615185286e+00
-8.887343191417154120e-01
-1.393048199741047322e+00
-1.164308023620781452e+00
-3.068831444096444330e-02
-1.538398087424480476e+00
-3.756917753191369447e-01
1.391662798176538096e-01
-1.001830172366110050e+00
3.337599484270775685e-01
9.246712032202503151e-01
-1.260041092911440563e-01
5.133129620540043403e-01
-2.106726075171708068e+00
-1.001769757844742204e+00
-5.863741936003705746e-01
-4.865914178471891088e-02
-2.583404879646572505e-01
-6.198518009700123566e-01
4.888022120801890358e-01
3.035185560557192574e-01
-4.483898287052583420e-01
-5.871726815932423182e-01
-8.764967814550446157e-01
-8.361827514513237025e-01
-6.843317709371886659e-01
-4.114252331480054425e-01
-8.195947284131088750e-01
-1.444246103223351674e-01
3.975979576594496634e-01
-1.743150046671663622e+00
-2.041997849442644508e+00
-3.757489459139113919e-01
-1.382626788759168335e+00
-6.039228670711820068e-02
7.769997082990363901e-02
-5.943675282782306946e-01
-3.834343061511681916e-01
-1.451896754317866522e-01
-2.324641718349767516e-01
-2.308287216029156763e-01
3.166832507029826993e-01
2.273316745815659456e-01
-2.702948326518867517e-01
-6.064384114580481100e-01
-4.206791514858586600e-01
-5.692571929006894349e-01
5.499440297144014139e-02
-8.069624996057491728e-01
-3.874032084406701659e-01
-9.104286139020143498e-01
1.081013434878942692e-01
-4.474205930400574904e-01
-5.956899789292572356e-01
-2.424952792410639268e-01
-5.834597341770194623e-01
-2.320218613766772409e-01
-1.137333231215272633e+00
-1.061314036449832354e+00
-1.164028435699546060e+00
-7.859385948114034903e-01
2.078062250624084784e-01
-1.796866470768615276e+00
-1.399782649878983098e-01
-2.422991294016980657e-01
-8.509387037380626850e-01
-1.763621868746217292e+00
-6.438495694757953025e-01
-8.165286543503597061e-01
-1.408378808076059974e+00
-7.025355306322034199e-01
-7.578959471756305799e-01
-9.493873685546577734e-01
-1.241873752530944230e+00
-9.217249696703919137e-02
-7.956012756222289317e-01
3.867623429341727759e-01
-2.286268327196760153e-01
-3.293642738828760352e-01
-4.350684605748436629e-01
-3.395727619245932360e-01
-7.021489230924977953e-02
-5.432223534895193051e-01
5.591767232927293829e-01
-1.880334821708178894e-01
-3.177165182216135642e-01
-3.268409715273272731e-01
-1.103305509843243382e+00
-1.346060157659784595e+00
-8.037448693419065870e-01
2.821662135410397121e-01
-1.107215520980586732e+00
-5.352292262956955815e-01
-5.856194651913727567e-01
-1.562493281570827008e+00
-7.009179377872173586e-03
-9.480747780673319802e-01
1.155064074994624768e-01
1.893341769019032395e-01
-1.120241671388333415e+00
1.371657380076989896e-01
-1.093873276148174645e+00
2.317278468073058761e-01
-5.669486345410632566e-01
2.701038103615422403e-01
-9.961975582014840347e-01
-2.051041312374685677e-01
-8.016696685763409214e-01
-6.900079423060136996e-01
-1.194861198308238559e-01
2.112988878232339718e-01
-3.243534169275927859e-01
-4.603234734328546240e-01
-3.167668419695733317e-01
7.055870020265644915e-02
-3.886544220597932253e-01
-1.092999813904645512e+00
-3.179257967238312554e-01
2.365073952716158570e-02
-3.562573669078912819e-01
-8.255680009398045360e-01
-4.561217875969485538e-03
-4.457563340985694622e-01
-1.073824519459225968e+00
1.998615327318957469e-01
6.288346658938546163e-01
-9.452293904745359132e-01
-1.243391524607273757e+00
-7.921476988805979946e-01
-9.348948718081904197e-01
-1.988655695352253561e-01
1.683247506204186075e-02
-4.456637322328939610e-01
-3.888804956215488606e-02
1.622816107798699115e-01
3.550634769203893648e-01
-5.974475304698861899e-01
-5.171418849717401844e-01
-7.234556800127548426e-01
1.984972435107785760e-01
-1.688764176545102247e+00
1.367169563681079059e-01
-1.454775184386308595e+00
2.406233700626399241e-01
1.437319294437754691e-01
1.700345008466332963e-01
-8.591410158124487828e-02
-4.423194120897263604e-01
-5.506743740890334138e-01
-1.973046247772642092e-01
-4.617316554105877491e-01
-6.693647046560162739e-01
-8.032076655317522684e-01
1.329949187493285612e-01
1.013264931298744342e-01
1.584023407232890146e-02
-3.767680882683956817e-02
-1.141055699384346950e-01
-1.214927915832338667e-01
-1.095439646158329561e+00
-6.386927127306439855e-01
5.032315156362336950e-01
-1.749509788335254612e+00
-1.582134538106137134e+00
-3.616660990247154706e-01
-5.887134902769604050e-01
nan
-6.340568705583202735e-01
-6.591417723060504219e-01
-7.276197327120117464e-01
4.414373275979771027e-01
-2.322686840261841024e+00
-7.283198497488869994e-02
-2.208281131801836938e-01
-5.843046160785844156e-01
2.423813854425165837e-01
-8.748677880729930356e-01
-4.127229853103424051e-01
-2.050089341529614806e-01
6.514269123231973546e-02
1.485683167824965178e-01
-1.750404182192071056e+00
1.176117837840288671e-01
-4.862566809046165450e-01
2.682577572634594620e-01
-3.922629211512755898e-01
-2.077527440778278223e+00
1.401610536564708853e-01
3.061512909374631275e-01
-9.305553368413947979e-01
-8.163156469395932424e-01
-1.090393017605895687e-01
1.698702703076790388e-01
-1.448391276951249140e-01
-1.321072214950218981e+00
-9.604306244274377624e-01
-3.907988408899769617e-01
-2.350847041413376970e-01
-3.316061208772707464e-02
-1.017197995763670759e+00
4.311032065073303055e-02
3.742796735965542854e-01
-1.690040990546708199e+00
-8.731679681194451925e-01
-5.649910291280023644e-01
-5.487208076885133901e-01
-4.811066027378129162e-01
-1.855099186064818884e-01
-9.874334826470996251e-01
-1.193026432504998402e+00
-1.074631191375907679e+00
-1.381610033542573501e-01
-1.018920656083186715e+00
6.730555256748312898e-01
-9.489488962779758507e-01
-6.023040888567513518e-01
2.966820273341657099e-01
-1.583776669545722549e-01
-5.400981698512502538e-02
4.679274872708579780e-01
-5.094499252313552384e-01
-4.672552298524347281e-01
-1.055766253619076389e+00
-1.359434250506595387e-01
8.855696128101864240e-01
-8.085996625775567770e-01
4.269772187048340717e-01
-9.847707393548431609e-01
-1.208808827074159403e-01
-5.821311561576374416e-01
-5.570054820941725549e-01
-1.910170794129066596e-01
-7.637593575486225639e-01
-4.133892600981375204e-02
1.994090897558017661e-01
-7.601005285089033892e-02
6.778903369096446474e-02
-5.604324082376563321e-02
-2.076040454350756570e-01
nan
-6.060051069739947893e-01
-5.986420587021937800e-01
nan
-3.953185694194222277e-01
-1.421107841252281512e+00
-3.318865354926510136e-01
-9.272848168667148228e-01
-2.133418406833278436e+00
4.933377580886752489e-01
-5.665200559467955532e-01
1.413487854730623328e+00
-1.105706177486455388e+00
4.112585232960255244e-01
-6.311261706007126326e-01
3.601965311941413561e-01
-4.163532907661467442e-01
-2.310403278065419896e-01
-8.989139302900785999e-01
-1.334453221212884344e+00
-1.644426536124223570e-01
-5.947995138071160426e-01
4.140027537127037305e-01
-5.703557596855658440e-01
4.002272784394987348e-01
1.752009902487463300e-01
-1.339658811207852795e-01
-6.337888393270029175e-01
-9.986686232915754635e-01
-8.305109846047766808e-01
4.690482659860842340e-01
-1.564095152090203333e+00
-1.437146800426848614e+00
-6.189814762031468076e-01
-1.239929499653572353e+00
-4.790456567364043128e-01
-4.835221550314451333e-01
-3.441432779919090801e-01
-1.865662589889716116e-01
2.462095408320813528e-01
-1.029807425327887715e-01
-1.575379677869716666e+00
-1.396945040315631381e+00
-9.605893146113866354e-01
2.878961598390704021e-02
-4.493182993149525406e-01
-1.176345526630377059e+00
-1.526887288702728718e+00
-1.154187945028818163e+00
-2.082367824131643175e-01
4.315872814269022806e-01
-5.407312733787796866e-01
1.368907197801418618e-01
-1.885688571700896710e-01
-1.621359843608300155e-01
-4.848871089143359514e-01
-1.042713364454613822e+00
-1.540122574996262150e+00
4.411938921310308293e-01
-2.520722358594602586e-01
-8.483313804178039819e-01
-1.283920525979389105e+00
-1.730578452531945088e-01
-2.722344140507042543e-01
1.042372092302094599e-01
-5.814423839705933350e-01
-1.135380100724807662e+00
-6.453635328125540971e-01
3.475417361540684147e-01
-1.129114390420567826e+00
-1.635474848351004651e+00
-2.256199492511114513e-01
1.725288722859502355e-01
-7.512328156175758220e-01
-3.705582289802780704e-01
-4.516784893268825929e-01
3.072849890236718090e-02
3.072160251489253202e-02
-3.369484370616599445e-01
5.445443974522609087e-01
1.146527326458754714e-01
-4.291600796457402112e-01
-2.573478687528738540e-01
2.359497818146483617e-03
-2.071009610220290842e+00
-3.319278556356261012e-01
8.470563077494010218e-02
-5.643016586901863363e-01
-1.287903946625227336e-01
2.828197554467968278e-01
-7.519871113927931727e-01
1.729158474807172552e-01
2.109933238068006089e-01
1.933392950051768810e-01
4.518975257145830815e-01
-9.448668124227881104e-02
-4.886654637341313334e-01
-5.301366236391360509e-01
-5.275461699682475469e-01
-8.370550646934992178e-01
2.010665732322104160e-01
-1.557221518790374570e-01
2.489037711111257434e-01
-9.827750993936079649e-01
2.707965443651193516e-01
-4.425343956025045711e-01
6.224708672672984999e-01
-1.548077703585598874e-01
2.173776781163146432e-01
-5.457820239496601333e-01
4.125102997350178491e-01
-1.402170568451055477e-01
-4.311370234989207739e-02
4.108831233255531012e-01
5.050218506037285060e-01
2.429195458703754806e-01
1.556246576832691630e-01
3.921550824271719526e-01
5.436946139993061866e-01
2.965479475938706533e-01
2.382646651876930977e-01
4.397799943013824264e-01
-1.812077719895722194e-01
4.488807662705721624e-01
6.883715258627591815e-01
3.607278727874246860e-01
4.098741195284327232e-01
2.433830982925402064e-01
6.400854065998093922e-01
5.447421058709903674e-01
7.847362920457945368e-02
5.067474939319154270e-01
4.491759429656398406e-01
2.806324206792885079e-01
1.897441132872458025e-01
3.659803504335719104e-01
1.732320220960168466e-01
1.330174626697541891e-02
2.282917555458082587e-02
3.693139595939097242e-01
3.950325833213942373e-01
2.571647320664374181e-01
4.399602194112512410e-01
1.712443780380076830e-01
4.020711540485677471e-02
8.165789617706090131e-02
-8.937099468493206467e-03
2.244715195104797778e-01
-1.321200587768446955e+00
-9.833114176638120263e-01
-1.402209253426848434e+00
-1.609923418689348518e+00
-1.386804138169144052e+00
-5.710870529081293334e-01
-1.220683896243509370e+00
-1.563144377117475337e+00
-1.394720569897041962e+00
-1.585962249393664703e+00
-1.507515131888513160e+00
-1.483518262836561297e+00
-1.755873291650744017e+00
1.046676259902390438e-01
-9.141004368081382392e-01
-1.520664035417197635e+00
-1.188707884884199428e+00
-1.485741540538624283e+00
-1.248575224022761443e+00
-1.423217776565137704e+00
-2.000672260596230156e+00
-1.825345074688066171e+00
-9.480107506029152864e-01
-1.496220833298632868e+00
-1.832279630553520278e+00
4.063344368396562545e-02
-1.212289319654718200e+00
-1.794317495476374313e+00
3.152677656167395259e-01
-1.798689318866485642e+00
-8.431125514836327328e-01
2.270929298327907797e-01
-1.209375868534479370e-01
-4.189768304499382201e-01
-3.580027575788676253e-01
-1.066841654985594801e+00
-1.375858860311420240e-01
-1.334740374360188497e-01
-8.996055281043612295e-01
-8.929493538766035687e-01
-9.189838060601633607e-02
4.527876662946465625e-01
-2.911713659233605145e-01
-4.254469671970230182e-01
-2.116528723304541004e-01
-4.088053863382470343e-01
-2.077226362913116298e-01
-8.996134468796624928e-01
-6.956238816590385454e-01
1.048936513302792389e-01
8.858962648096475601e-01
3.214015606989634732e-01
-2.729006321544132918e-01
-7.215947792148971751e-02
-2.642427273369562513e-01
-2.721228922400669714e-01
-2.750056319956766249e-01
-9.334993791941668118e-01
-1.191389642247643099e+00
6.556478864459663880e-01
1.199738261615828777e-01
-6.588729460878447464e-01
-6.430015087716710598e-01
-4.024820778318021208e-01
-7.903455160108685540e-01
-5.404916312225861441e-01
-1.382773876420509529e+00
-1.551110881228902894e-01
-7.505372882905606557e-01
-2.535879997482538339e+00
-6.365548780356610203e-01
-8.866720825105983694e-01
-9.500713273711927087e-01
-4.256694047572342487e-01
-9.781566019945383550e-01
-1.712587698055699492e-01
-1.998253553992419551e-01
-5.415601184325320450e-01
-1.649612577594554430e-01
-3.073218946737591439e-01
-1.106337691263276302e+00
-1.022157623427223605e+00
-7.911512975166473671e-01
-1.370196795195566031e+00
-7.023079972598506027e-01
-7.912327668254217627e-01
-2.389839312960802542e-01
-3.016530540099305324e-01
-6.310527339283157622e-02
-3.688435885561147098e-01
-6.552062767355034678e-01
2.640237734708836270e-02
-2.905824896046896866e-01
-1.042758373784208548e+00
4.369834752943935197e-01
-4.691228386798451319e-03
5.580843738159807499e-01
4.212564449788578913e-01
3.038581588055984661e-01
2.000081880771106269e-01
3.280131169090902965e-01
3.595368585815876261e-01
-6.799783796074978515e-01
8.024318345441433520e-02
-5.958619584233295491e-03
8.734301275529494923e-02
1.493648190930546571e-01
-1.591221682245631264e-01
1.521497120922308266e-01
-5.128499992951453951e-02
1.416663210267663786e-01
8.873691439601916198e-02
-7.462457799007788939e-01
3.478473316899336788e-03
-4.997039171597132956e-01
-3.853037453623206487e-02
-5.930422812560747631e-02
5.646898306464660962e-03
-9.937053381106759620e-01
-4.314612595648891769e-01
-1.641291096575204500e-01
-8.377188921082791007e-01
-1.170026476745601896e+00
-8.814858418467889090e-01
-5.459664634354534085e-01
-6.366094616659394578e-01
3.479944965533537243e-02
-1.643493089982445143e-01
-5.055536553497400609e-01
-2.836743295544322599e-02
-2.255417305576088161e-01
-2.318586086013968983e-01
-2.591712988941853868e-01
-5.826104775068359221e-01
-2.893832983262422665e-01
-2.929621892602622402e-01
-3.486254858807079082e-01
-9.138729068617765794e-01
7.452189971206060748e-02
1.427292506700384711e-01
-3.303398321146463479e-01
-4.152088744614412241e-01
-8.937980137815740300e-02
-1.494166103264584988e+00
6.774529530200371075e-02
1.320519284822369022e-02
-2.844212838653096820e-01
8.856900511372842177e-02
6.399193406007028240e-02
-1.375612238174998225e+00
-6.635167559363929213e-01
-9.300476430130645289e-01
-1.171690249424078845e+00
-7.463921846566178298e-01
-4.498138728370065786e-01
5.391777992166852523e-02
-9.118080922027874680e-01
-2.641695024756264276e-01
-1.806463235712180981e-01
1.919373061315229889e-01
2.134866521247192339e-01
2.085232421611715736e-01
4.675250501820230054e-01
-3.633826840884396003e-01
-1.974848280867183559e-01
-3.991166478585890798e-01
-4.049981475795734198e-01
1.752270677597442816e-01
2.439880595226484594e-01
1.780556885154691016e-01
-2.314420563862881752e-02
-2.206892981946783072e-01
-7.967793147634804063e-01
-3.767935353436168699e-01
8.923760041046530089e-02
-2.683955668295727737e-01
-4.858385389968114532e-01
-1.046398440157749743e+00
-6.758200638185152265e-01
-1.335551796594512952e+00
1.213047413040441863e-01
-4.511940866724490906e-01
-1.470103153296986598e+00
-1.640173548435302608e+00
-8.505753497888171033e-01
-2.374948981511834367e-01
2.563655933398260520e-02
-3.290954898764289482e-01
-8.703954140899429204e-01
-1.318482266371197031e-01
1.726690955642689318e-01
-5.629403380604802026e-02
-1.267590058031639044e+00
-9.918889251496352255e-01
-1.627822282577246371e+00
-1.016068310204340658e-01
-8.068226163018923924e-02
-1.898971564452750227e-01
-5.777506687197534463e-01
-9.247111179267363257e-01
-1.073846730949761019e+00
1.399863133549580363e-01
-5.656069316406228120e-01
-7.343797626790095345e-02
-6.864078348740668134e-02
1.753358131768903427e-01
3.458357319188929413e-01
-3.805303769500270605e-01
1.051259508220841327e-01
-4.543206210984650495e-01
-1.721746140383925983e-01
3.329725141142440836e-02
6.634769427137021669e-02
3.707546871065065530e-01
3.255096438808558618e-02
4.048080876259908117e-02
7.032473922764007623e-01
-5.513857195790982865e-03
-8.696798285167441911e-01
2.311435166185754064e-01
-8.133463777565672626e-01
-7.609637199551231301e-01
-3.078661484701891160e-01
-1.528300086888852161e-01
3.531121516797366966e-01
-5.219313628040510578e-01
-1.127701251294177309e+00
6.081511898442144570e-01
4.069635635721375877e-01
-1.097874512158678817e+00
-1.901721487042510872e-01
3.511761438329986662e-01
7.041446911747996085e-01
2.770480155937524724e-01
-4.310985923056188940e-02
5.174117059148201081e-01
-3.794259131359223325e-01
5.872949599921025721e-01
-2.303359473645017197e-01
1.268247475645122579e-01
-6.788398854341323729e-02
2.973719058778801494e-01
-2.529787663382666363e+00
-5.876414337154536316e-01
-1.187726391629495976e-01
-2.542679194153718125e+00
-1.593379827551116179e+00
-1.934821366265906395e-01
-4.745823069000266736e-01
-7.330264591492718917e-02
-5.915271923672008603e-01
1.699473152956849364e-01
-9.548441410066804691e-03
-1.835827227013149821e-01
-1.911891744748560829e+00
-1.663983502012853721e+00
-1.561863512695738088e+00
-4.157645694566387135e-02
6.117384574606611614e-02
1.587702552689787272e-01
7.556763061026854078e-02
-8.084277601351259890e-02
-8.069232303195673639e-01
-1.403820123622462335e+00
1.001355018189738211e-01
-1.690976432313256117e+00
-1.890216411954629971e-01
-8.792972604070996567e-01
-5.136045195474363556e-01
3.876891975055093420e-01
-4.124123437203112141e-01
-3.944022954406915527e-01
-1.168187797088255792e-01
-5.875222042926420141e-01
-1.045700954479896527e+00
-1.559308717991765070e+00
-8.694622985214486288e-01
-1.275512754721467079e+00
-7.433283317607837226e-01
-6.206146690079592521e-01
-8.812979553188129422e-01
-6.634337818976626666e-01
-2.470879928657104818e-01
-4.484172855617098996e-01
-5.001377678649788772e-01
-9.536160686477253012e-01
-1.576970261300994824e+00
-7.429408753146616862e-01
-6.091625614489180052e-01
2.948293437951226559e-01
-8.672405761203054730e-01
-2.223628123605644047e-01
-1.450390580181518951e-01
-7.583292447955643223e-02
-2.295764127747705330e-01
-3.752531364535825059e-02
-1.565936626942053156e+00
-1.081963182149971447e-01
-9.380410763136615149e-01
-1.752340717024566952e-01
-3.242858652270076969e-01
-8.031103767677072458e-02
-5.802906945926368243e-01
1.337113235114539556e-01
3.100203783254842915e-01
-1.099486274896630533e+00
-1.615320970684276380e-01
1.202444544000680904e-01
3.513529707481412023e-01
-2.282955617153873129e-01
-4.940001230443258340e-02
-1.010193146223246075e+00
-3.675854108384280505e-01
-2.019366082983014565e-01
2.346049865813914226e-01
-1.193965725839737146e+00
-5.549160733084598229e-01
-1.680950031312564930e+00
5.691174279448971141e-02
5.207374438026280972e-01
-3.223908881708391350e-03
1.344775279885823960e-01
3.296591745939197460e-01
-2.794634842564588592e-02
-9.150150012318837567e-02
-1.157790746934441728e+00
-9.568499495721901615e-01
-1.595145503461413483e+00
8.930351878842445190e-01
1.768771246516000484e-01
-1.931838139941043642e-01
1.707908474823374712e-01
4.153460733673809968e-01
-5.451796696155657429e-01
-1.256333659980617856e+00
-6.485082589975343925e-01
-9.782637832136810152e-01
3.353596835346360772e-01
-4.992460481177893872e-01
3.979041364421959104e-02
-7.132313841811741550e-01
3.875124327621220499e-01
6.738577272461131473e-01
-4.649313159270260787e-01
-3.358231138208491173e-01
-6.854912705001736661e-01
-8.156356961999466915e-01
6.163287110783780554e-01
6.008759996659688296e-01
-3.232642790531612409e-01
-4.131494987857766699e-01
1.924349602037458140e-01
-5.126628071111847262e-01
-6.446375506357033824e-01
3.827755555881467986e-01
-3.303891566259254953e-01
-1.410132427997745852e+00
-7.041227392722041456e-01
-3.989005648847760988e-01
-2.633198383105583851e-01
2.506036070563371077e-01
-1.629680118257903265e+00
-9.442674439166334754e-02
-1.353451931914313455e-01
-3.136421346817016564e-01
1.075710835037932134e-01
-3.047531454984702889e-02
-7.156366541919802378e-03
-8.332798931130360742e-01
6.356084358321066885e-01
2.418532253512732655e-01
2.448491318586125051e-02
-8.330073920798920506e-01
1.872143324908558948e-01
-5.249393772891646215e-01
6.443684388025091581e-01
3.976253749227708911e-01
2.318049443733183612e-01
7.365179268460466666e-01
-3.045651801076049159e-01
-5.795527401022060321e-01
-3.289742354397204860e-01
-8.169509056578418971e-01
-8.410097378576228966e-01
2.634321093901867417e-02
-8.696060503949900600e-01
-1.898879734677240805e+00
-6.975576388924825677e-01
-1.353998854867949631e-01
-3.952243286297994762e-02
-6.092576583495744602e-01
-1.119116165587213274e+00
-6.735331412624033787e-01
-7.296558780499002861e-01
-3.863166220384665062e-01
-6.583770592745513683e-01
-6.108501692351687717e-01
-1.271261049783690256e+00
-1.595917267071019774e+00
-1.718085404281755491e+00
-1.884301406164617720e+00
-1.968109875438669221e+00
-3.149335889823261514e-01
-1.095882395521916131e+00
-1.533530375113390631e+00
-8.107716667131787958e-01
-1.473693391841543188e-01
-9.596542762559238104e-01
1.201292335313233345e-01
1.435462521084479026e-01
-1.404475444629347924e+00
-3.211214622351500902e-01
-9.575637347205542826e-02
2.198294188284741213e-01
4.561770202094457272e-01
-2.669848259603285201e-01
3.480541298962759322e-01
-9.000187599742675015e-01
-7.257171411900089630e-01
1.458602529123246005e-01
-8.022956855061743608e-01
-8.666892098304028458e-02
-1.281625537988980934e+00
-4.759320518392201604e-01
4.557134249128395875e-02
-1.203188713717455172e-01
-1.097189358633957612e+00
-4.344213967451852065e-01
-7.389407409959655171e-01
-9.999928482279838438e-01
-1.526256772576400245e+00
-3.654174070595736512e-01
-2.265109645863122578e-01
-6.394431321231295318e-01
-4.574343237720121524e-01
-5.995367491457188613e-01
-4.949359287145939645e-01
-3.356334915227574545e-01
-1.861021557341394628e-01
-9.805892323824617618e-01
-1.489920692984391337e+00
-3.384396704480876344e-02
-2.629454862854013197e-01
4.796132238122916003e-02
-5.236077114204817917e-01
-1.875295063835817344e-01
-8.595664432568884683e-01
-8.017026472032575679e-01
-4.972097274242673337e-01
-5.228639214753579845e-01
-5.516213692792057977e-01
-2.633537627224973310e-01
-1.624910250115817537e-02
-4.773280366848857148e-01
-5.822625509043529574e-02
1.330529013092607848e-01
4.258528379728857005e-01
3.024734751563502161e-02
-1.387853645636270561e-01
-5.686908223344184776e-01
1.936362857721054265e-01
2.986702316958500872e-02
3.942483824835210648e-01
-8.290850433342128456e-01
-9.645335431958850236e-01
-5.576226046554842997e-01
-1.286762595031594403e+00
-1.906473834722778538e+00
-1.509681422647222826e+00
-9.803267898764712607e-01
-1.800331101349660345e+00
-3.871302331499957838e-01
-2.560369140701186930e-01
-2.173503412891795716e-01
-1.332386151837878341e+00
-2.570461527691176862e-01
-1.095238529633348445e+00
-3.992225693863805103e-01
-1.264489847261154987e+00
-1.528190376296539865e+00
-1.752192381424347634e+00
-1.701714718398119885e-01
-8.835163919357389428e-01
-1.481719305313537793e+00
-1.491567942147001280e-01
2.889255441970185467e-01
-8.556894712977797246e-01
-3.742214951503171627e-01
-2.040771317439833143e-01
-1.011880911703069819e+00
-6.808715815878343403e-01
-1.171226170774086084e+00
-1.247466735004189864e-01
-3.384788802338592473e-01
-2.832384239372768286e-01
-1.252987956867763764e+00
-5.539025603867492320e-01
-1.387381732694929370e+00
9.066056066256474866e-01
-2.047181775995115735e-02
-7.054010505065314018e-02
-5.434793090872890309e-01
-1.563669283721959680e+00
-5.645140849076862866e-01
-1.795559910986813001e+00
-1.065213954102501193e+00
3.104661580247218833e-01
-1.652580021268846844e-01
-8.390526889214896533e-01
-6.356978270656054031e-01
4.172892347886654196e-01
4.287852115922896612e-01
7.759166093252622964e-02
-2.776587263736329247e-01
-8.364668328363661365e-01
-1.319998196406397151e+00
-8.829959650481310207e-02
-9.623960105526503384e-01
4.794206592602475170e-01
1.760593647637875847e-01
1.106266700349639809e+00
-7.390312250060691035e-01
-7.481632689792978574e-01
-2.980021886913539197e-01
-6.500985862477872690e-01
-8.387381264239545109e-01
5.020638949501835674e-02
3.258698963949672178e-01
3.487499080139076502e-01
-7.166410542613718127e-01
-1.506124983376554649e+00
-1.759844184726505611e+00
-1.798464263768989602e+00
-5.840321158070149732e-01
-1.800577299234830120e-01
-3.986511233407621368e-01
-4.512549224634663236e-01
-9.761827229045441090e-01
-1.280992181747710346e+00
-1.215388518696622455e+00
-6.082045499551362866e-01
-1.350076771095690020e+00
-1.204179335390640038e+00
-2.310640293578194171e-01
-1.848579044231689894e-01
5.708107419611306577e-02
-7.222636140032883123e-01
-8.201417686868467394e-01
-8.207055026495209127e-01
-6.130544456929668540e-01
-1.108543107864005339e+00
-8.275806126802899287e-01
-1.633026469188205043e+00
-1.704430080553441140e+00
1.910361959327034481e-02
-2.425885237800413929e-01
-5.485050919920212431e-01
-4.061614589470261549e-01
2.796430927979484116e-01
-5.948647673901783645e-02
-8.543500288685280664e-01
-7.671447147034239356e-01
-6.270849474629230924e-01
-1.407026211920811454e+00
-1.329756767959165753e+00
-9.721131909632448054e-02
-2.688332582874695120e-01
-1.387176958051925757e+00
-2.460236135815032643e-01
-4.038602958168581725e-01
-1.890226705127037388e+00
-5.941873999124532846e-01
-1.451580187715073578e-01
-8.709852284082326701e-01
-1.071985580862227172e+00
-4.634347239343211133e-01
-5.564885592131476599e-01
1.312323410498612009e-01
-5.940456049829913043e-01
3.151580110247885202e-01
-1.067232852021890999e+00
-3.930545507325270416e-01
-1.486181898510593680e+00
1.731293641672277950e-01
-7.779902964164264918e-03
6.346570809154785664e-01
-2.253873677841354561e-01
-2.815555739062886031e-01
-9.845852701899666659e-01
4.510448814384360738e-01
-1.490596591475843447e+00
-3.253546250090602054e-01
-9.136661233911554103e-02
1.527122911898224078e-01
2.082290480304293534e-01
-4.842688007362577762e-01
-5.097603454584649363e-01
-2.478625921459520765e-02
-5.652581974233786832e-01
2.392707707925564864e-01
-6.291179370434857310e-01
-6.193762135849385508e-01
-7.222899191523126650e-01
-5.608366184633691853e-01
-1.471859424222271562e+00
nan
4.472370393870268857e-02
3.738321992148346817e-01
3.613996385317302246e-02
-9.210924922543457516e-01
-6.049804004893118980e-01
3.026767533930805332e-01
-3.707596156719727976e-01
-1.306439957552192110e+00
-4.814314522855798750e-01
-9.506880545191391807e-01
5.316845096335515164e-01
-8.967265434510206523e-01
5.286009540540015372e-01
3.199973374359322276e-01
3.563525256533340291e-01
4.028384580138709703e-01
-5.324858324739845106e-01
-1.641943694944629328e+00
-6.350321637371871830e-01
-9.319081584282338238e-01
-3.578651196160119730e-01
2.595752238600476658e-01
-5.758931893766306986e-01
7.718007249624096733e-02
1.049957191104191195e-01
-2.986457668384285835e-01
-7.545965988896303767e-01
4.781144536007849166e-01
-4.366066391618259601e-01
-4.867911684760490437e-02
-4.889783451504962214e-02
-2.759581531102645036e-01
-8.474034854503706971e-01
6.557575918285724059e-02
-1.564131290889496428e+00
-1.358888438136624799e-01
-4.272451027619122293e-02
-3.793715389765948687e-01
-5.742008229226038818e-01
-9.783807574463785350e-01
-7.037463494533833241e-01
-6.604478868786374246e-01
-4.192607432937221490e-01
-1.267641085960830027e-01
-4.527931816012144006e-01
-1.300861599273000158e+00
-1.738928377818021564e+00
1.868500698639016244e-01
-2.031067971590524712e-01
-6.725991396699664282e-01
-3.979369653267028073e-01
3.621223094910597795e-01
-1.825192593798564411e-01
-8.171276321979586976e-01
-4.054588784047392647e-01
-6.094388761872735483e-01
-8.387484592367567826e-01
1.775111898135850463e-01
-1.734048032556804397e+00
-6.972376762705074782e-01
-3.408930750599022952e-01
-5.498737512770451863e-01
-3.794102139458245260e-01
2.770566955553702138e-01
-2.149478375062245650e-01
2.142428938503429803e-01
-4.738117921839461455e-01
2.739586137262129406e-01
-2.114871039715683076e-01
-3.761252734631342354e-01
-8.435072236990452943e-01
-1.087351983913751541e+00
9.623941515136119618e-02
3.587013838730456761e-01
1.702390059740309033e-02
-4.560693969722839913e-01
7.469754628043732136e-01
-5.982394395052539338e-01
-2.227738161490964430e-01
-5.246394045508726567e-01
4.108865353890706618e-01
-3.736164441510007039e-01
-9.897813034577545022e-01
3.486777394866269388e-03
3.562856942601057009e-01
-2.567909838844458781e-01
-5.748866545514562665e-01
3.323027004445670007e-01
-2.389583684876177977e-02
-5.318880349578873901e-01
-2.087409181080481790e-01
1.082738760012119245e-01
-6.789664716086879492e-01
5.798581910778325410e-01
2.618419849578611514e-01
-5.158804604905663505e-01
-1.133332222026167457e+00
1.243228952911162449e-01
2.302098691898556149e-01
-6.479911335985585330e-01
1.065565390121897410e-01
-1.493440517904048859e+00
-4.960524066666157639e-01
-5.911546677405160599e-01
-5.107714256384423557e-01
-8.152422563082186713e-01
6.737984485347975339e-02
-1.276568877504314636e-01
2.512911060817826781e-01
-4.463362933001397970e-01
-6.100807518463609025e-01
-1.628483169225989069e-01
-4.150597248095227454e-01
-1.120911431583803353e+00
-3.364615472299878896e-01
-1.317546975302350765e+00
2.368189656976103508e-01
-7.327786753053259217e-01
-4.627158336446011710e-01
-1.264298688931408510e+00
-1.491725153253219416e+00
1.909470341392454917e-01
-7.609454789474318082e-01
-6.199157173455365211e-01
-5.519102116622662813e-01
1.407126739224915379e-01
6.123008481254476054e-01
5.543455403556129570e-03
4.067238865202517095e-01
2.876723067033506442e-01
6.340585368566314765e-03
7.738745535478079862e-01
4.035033394886297642e-01
-1.207794266883360557e+00
-2.661011010815221289e-01
-7.450248358759661294e-01
-1.491508036458908948e-01
-7.753547724333725855e-01
-1.752708539240179497e-01
2.556373724918049040e-01
-9.928643468635328651e-01
-5.985580965788168673e-01
-1.562155480665638141e+00
-2.200208393955369324e-01
3.172871794299225723e-02
3.510679143914385847e-01
-3.136115367735263781e-01
-3.119738542628819333e-01
-1.546218221196961951e+00
-4.561115470055575605e-01
1.234514340413117306e-01
-8.249803920166195459e-01
-6.085771414989010752e-01
-1.026723462709517865e-01
-1.620445573665307393e+00
-8.544408770314889656e-01
-5.118605132704205918e-01
1.539666850049118130e-01
-6.642967987305795630e-01
-2.748213337345845053e-01
-1.960235157753692503e-01
3.844911250323087559e-01
7.195807410739450960e-01
-1.834974359154977266e-02
-1.814654528493660213e-02
-7.559779896251159759e-01
-1.510705898001909464e-01
-6.193400705359680680e-01
-3.443230348430985632e-01
-3.255270087377953314e-01
-3.570765150709715452e-01
-6.429157601606025896e-01
-6.013179210425348975e-01
-3.952430063489059675e-01
-9.534408138931971255e-02
-3.727900665712963191e-01
3.132925020763291379e-01
-1.608185125141452509e+00
-1.201362668386237065e+00
5.739666844000935369e-04
-3.527940134590529797e-01
-4.366518762798773379e-01
-1.369654183538217551e-01
-1.245185608285627632e+00
-3.394602780847630341e-01
-5.379883302294036218e-01
-1.241867411814576716e+00
-7.176892429729326839e-01
5.094922739789568000e-01
-6.304024495067495071e-01
-9.247527878607261220e-01
3.171658812497540336e-01
-6.244348035615060466e-01
-8.825156445839852370e-01
-7.278639629098724306e-01
2.107693731392586700e-01
-7.125165036390778139e-01
2.039782192325003130e-01
-1.676853685711451769e+00
-2.070783578455282381e+00
-5.111739269958706089e-01
-1.363457042825875765e-01
-5.441231432756814534e-01
-3.389947356033966019e-01
5.909233973827655584e-01
-7.718151957933515606e-01
-9.708528546243860857e-01
-1.744682654844732284e+00
-1.109447445288642475e+00
-9.396823777198869410e-01
3.549206770043815684e-01
3.993046305199516866e-01
-4.366033274798034602e-01
6.476350442952993891e-02
-9.409395546240832964e-01
-1.020406928027429716e+00
-1.760143172675158629e+00
-1.896616480579968345e+00
-2.021478626876695994e+00
4.221034185897714064e-01
6.940221751793153315e-02
-9.137595767205363151e-01
-5.558358240461775956e-01
-1.049941061268363507e+00
4.205187527130828662e-01
-1.560249088834330111e+00
-5.100134909569649100e-01
-1.171529358891607586e+00
-1.454352210556536074e+00
-6.484234341570704885e-01
4.183093173566427431e-02
-3.572477554003922751e-01
4.124126873329522769e-01
-1.437850086749076495e-01
-1.065332108450613990e+00
-2.902632300463377502e-01
-2.482826006920539619e-01
6.989145890404248052e-01
-7.144858928130785047e-01
3.976295473146943850e-03
-1.191736049471902176e-01
2.618378107998707294e-01
-3.485271215137396572e-01
-2.604987805183347493e+00
-2.664387778807768004e-01
3.352246301028398712e-01
3.959484112286872914e-01
-7.600206469728970626e-01
-7.749826006933616673e-01
-1.135220514163853167e+00
1.855740735639811456e-01
-5.729065558274940573e-01
-1.093190646154105661e+00
-1.346192225237696105e+00
-7.673210535278853772e-01
1.179421900548749680e-01
6.504335801393995586e-01
5.797786780239835291e-01
-3.808013662293923685e-01
-4.757535998882973516e-01
-9.784553243996744198e-01
2.478335211993760445e-01
-6.956230494777672080e-01
-5.047466963977279564e-01
7.314055724111029333e-02
-2.086390276992299564e-01
-1.299772941699934181e+00
-8.292702323848466506e-01
-3.973695479529945618e-02
3.246012270768500740e-01
1.619548463273548788e-01
-8.440457980783998559e-01
-1.371545382435755966e-01
-4.099896676167827381e-01
-8.503581918828967412e-01
-6.198962657230985274e-01
-1.309657823874921245e+00
-2.208614741114522939e-01
-9.388101355867700670e-02
-4.779123363097676491e-01
-8.253042595872347453e-01
-5.641643170130731383e-02
-1.043546667479839041e+00
-2.620323073307821993e-01
-1.166012673712509828e+00
-1.280182400558750322e+00
-8.418603838314600019e-01
-1.965457113219040430e-01
1.986710167067918531e-01
-1.055019119978088532e-01
-1.011575775016701817e+00
-6.772535972681659189e-01
-9.074298844787331841e-01
-5.704792856322129513e-01
-2.110813462496746173e-01
-3.545648010625914726e-01
-8.007309045747897924e-01
-1.403056421558145361e-01
-9.476915812327223465e-01
-4.745547747315227438e-01
-1.175684192361342584e+00
-1.526738244768460318e+00
8.009269969036372783e-02
1.062356250085133791e+00
-1.219378558479210950e+00
-1.260560516937487607e+00
3.805392166565047529e-01
4.096946326018026108e-01
-2.596463388463979838e-01
6.864426577570729993e-02
-2.723054617087515838e-01
-1.107312046720295262e+00
-7.875042795791813155e-03
1.478959988587561381e-03
4.217198734880422961e-01
4.666460229351476752e-01
2.819888895723746680e-01
5.373860997460986333e-01
2.851392533913801874e-01
9.605034097339158750e-02
-1.990878814768397842e-01
3.342209478851613236e-01
6.445702524087543184e-01
-2.444385077918182492e-01
4.223357331922414359e-01
-2.987116989352434637e-01
-7.886350620140618328e-02
7.701828768417154913e-01
1.063912191852218081e+00
3.569943176189614986e-01
-7.718669216005133449e-02
-1.119504416158488391e+00
6.275599349326385079e-01
4.779363873218883674e-01
6.643654922740471758e-01
1.000941264899826294e-01
-3.580850741055158909e-02
4.525919762116548672e-01
-3.533696144353865032e-02
-5.303280607429415872e-01
1.572356346833029273e-01
3.447511198312712133e-01
-9.219108955012282891e-01
1.045092720107742984e-01
3.043591070346304828e-01
2.260868920204723576e-01
2.203973468824915460e-01
-1.304285428604628372e+00
3.420053291539860152e-01
1.391736056660537735e-01
-1.227431421227184405e+00
-1.626414830999320049e+00
-4.709944016223444607e-01
4.430894814618564492e-01
-8.109849177030391543e-01
-8.073001207575173366e-01
-1.713637144817506397e-01
6.521034665975675160e-02
-6.456912969215199416e-01
-1.653830991013549800e+00
4.255796308816425233e-01
1.480789721581284302e-01
6.269487742439532052e-02
2.212817910540568200e-01
3.448454383295968539e-01
1.769766441183468486e-01
3.567288403825640275e-01
4.530718630847362371e-01
-1.840703851764909027e+00
-5.130222513621314206e-01
-5.459451726507329461e-01
-6.653150411640034179e-01
-7.530951930250671111e-01
-1.354811999165027592e+00
1.568249894157434099e-01
-1.536086905169892436e+00
3.702096299428059289e-01
-1.897967296534366077e-01
-1.961989464690116758e-01
-1.210428549687938782e+00
3.005629185152565094e-02
8.448338331471855200e-02
-1.419791439748824824e-01
-4.416456262623197349e-01
-8.216324177595556166e-02
-1.151628280463602438e+00
5.412139759927080823e-02
3.627515744063677418e-03
-1.321655317426104315e+00
-2.388848140391437169e-01
4.838624541591615702e-01
-9.335605401672861237e-02
4.690496634231658413e-01
5.225647356233884544e-01
-1.918336460924916054e+00
3.942925609721752989e-01
-3.771590352922747913e-01
-1.089832626560059969e+00
-2.673543271895959528e-01
4.457852678097201649e-01
4.335658436709967645e-01
1.375169128616741399e-01
1.738219088208314486e-02
8.089702642020266121e-02
2.705418011266968459e-01
-6.007371689937451853e-01
-6.662513347004109798e-01
-2.724535741848221893e-01
-4.740922320840171289e-01
-1.091999383359591125e+00
-1.590301744856605359e-01
3.173460723576377873e-01
-1.228680579289721519e-01
-8.047914013866275251e-01
7.935705769079848260e-01
-1.217718041704673348e+00
-3.051410686717834220e-01
-1.991340512574906407e+00
-2.407271576609744113e+00
1.033981172682238298e-01
-3.743547780452688434e-01
8.032987507174378372e-01
-1.465950630892755013e+00
-9.312561624968805629e-02
-3.553693177086593158e-01
7.723384478611840243e-02
5.079612534185842243e-01
-3.379088141137808754e-01
3.917996527255827033e-01
5.832758429524925736e-01
2.203833058585583926e-01
-3.356549914644602617e-01
-1.880738477541443521e+00
-2.015883302781559028e+00
-1.837154150060787750e+00
2.399704853825144202e-01
-4.624905630514598576e-01
-1.245476111373862715e-01
-3.533443480819712518e-02
-1.273503475898364989e+00
-2.577423922778475096e-01
-1.698064797317774544e-01
-6.004396166550634018e-01
7.237758762370483101e-02
-6.067790123835987703e-01
-1.676965310456617342e+00
-2.305092145919007407e-01
7.487086226168564174e-02
3.818311999312585803e-01
-1.411575338486279030e+00
2.033505534718778041e-01
2.154149546627976697e-01
3.479294405493432718e-01
-8.310946492149450249e-01
-1.093302165787852998e+00
4.264002618097046393e-01
1.359523566492758240e-01
2.961107647437117296e-01
2.602805825149677177e-01
2.361081419321178765e-01
-2.174508447726847538e-01
1.691252050408779128e-01
1.278581893107664513e-01
-4.097817880081402464e-01
2.217077203316070999e-01
4.880720125906695128e-01
1.296901819873095552e-01
6.171698401494252195e-01
-1.330423143375781929e-02
2.970061836418621537e-01
-1.473980382530306610e-01
-2.830370385709876091e-01
4.386519597232824696e-01
-1.020226963196609743e-01
-1.080217097682858229e+00
-4.755668024793494736e-02
-1.360887439096226670e-01
4.426547069510869958e-01
8.014119730031740163e-01
5.493870260690810747e-01
6.350937272464192151e-01
4.304749920758685344e-01
1.039083639070410431e-01
2.484516468743151463e-01
5.065418977795973499e-01
4.213488503329153034e-01
3.750693634618604277e-01
2.325310104047607074e-01
-3.306933629704376099e-01
1.270468010449190277e-01
1.485158439773273144e-02
2.837300599868164061e-02
-4.712716241551877516e-01
2.328114554775099765e-01
1.677557953301093419e-01
-2.010046605319214807e-01
-1.810154247871330058e-01
8.013155420578011324e-04
-3.101148794388927099e-01
-2.286854802561810035e-02
8.607303779024617907e-02
-2.101683769950390968e-01
-9.867963164548133603e-01
5.353654877404109280e-01
-3.938217787145837923e-01
-8.391785504181293875e-01
-3.675084427400314158e-01
-5.469764080242093401e-02
-1.523397664753302072e+00
-5.972381768466396013e-01
-1.040415111806536202e-01
-1.675839029966108285e-01
-2.418680970736216462e+00
-2.457230350472355829e-01
-8.452965498192606397e-02
4.089784593907709875e-01
-3.780471023948278608e-01
-1.040915026303310120e-01
1.588163835849325245e-01
-1.201512043808683483e+00
-1.113697318584252749e-01
1.936026070720958323e-02
1.996331830173195820e-01
7.317982856860680840e-01
3.384369253625518215e-01
-5.481546243975055077e-01
1.423734264642223801e-01
-4.293311770874347899e-01
-3.735242202479993057e-01
-9.272719088398034826e-02
-4.933849993184753480e-01
-1.581206025323045050e-01
7.355957673481908210e-02
-3.066727544722426813e-01
-2.780621685954743905e-01
-8.335017969949048977e-01
4.839414967317998140e-01
3.092416702585494281e-01
-1.316831186306365309e+00
1.528075976829095482e-02
-1.591188154487850115e+00
3.620742631304382786e-01
-7.098846009446548033e-02
-1.815968571629679174e-01
-2.547227282090590017e-01
-7.349473068896841266e-01
-5.548770174751467277e-01
7.907007849803381061e-03
1.530077019763764479e-01
2.347646334954547054e-01
-1.311541289816919309e-01
-1.006420163939742540e+00
7.326308162746843211e-02
4.150899336645346716e-01
-9.059430656665915516e-01
-2.385016616742906326e+00
9.234922661307917724e-03
1.419514751591582080e-01
-6.732869456529548546e-02
3.964559917905443598e-01
1.409384770239098694e+00
-5.101407464053687724e-01
-1.350102877531536016e-01
9.311530817261355619e-02
-1.416505128344802411e-01
-1.056209267032319321e+00
2.271523062471005883e-01
-1.806586963310903293e-01
-1.372743654416445303e+00
6.437594790246632670e-02
3.113713273444737584e-01
-1.077766153193539383e-01
-1.092758822442593925e+00
-2.254655945421812080e-01
-1.824156258866279912e-01
-5.797971196955191697e-01
9.682527027818305099e-02
-1.666585372718043523e-02
-1.401504694730251632e+00
4.672384922713667121e-01
-3.101945464569629829e-01
5.809282988378254853e-01
-3.458454095048075216e-01
4.579616933672047141e-01
-2.873992432961581800e-01
2.895488349608459910e-01
3.620890598668589089e-01
-2.547901368314808845e+00
6.627619857757255373e-02
3.912261015466952929e-02
-1.322919904834412019e+00
-4.055121138750474308e-01
-3.479264617347891386e-01
-8.721086478422949151e-01
-2.580766969884425777e+00
1.762363676258434098e-01
-2.213354716026456545e-02
-5.620142357917058407e-01
-1.819384930213882937e-02
-3.443248132366075742e-01
-4.447308611352406293e-01
8.667859080414370698e-01
-2.525457722966650276e-01
-3.561399330664957730e-01
-3.825447156708359220e-01
-1.561285681847832452e+00
-1.144386994483388570e-01
5.899319312147426331e-01
-7.411977720237368158e-03
4.695855753865212923e-01
-9.675739483617328274e-01
-2.520759470656977363e+00
4.138068548548622383e-01
9.221159282485752451e-02
4.168441668069136075e-01
1.386718917539843998e+00
-4.145481710964273869e-01
-1.149586626674113654e-01
-2.556005236412948634e+00
-1.430938905136598382e+00
-1.172186639227018379e+00
-2.512919866292241955e-01
9.597534262504640867e-02
6.844326243325384029e-02
-1.090381560937300875e+00
4.061485183797324677e-03
1.192242314891737598e+00
2.839563642597928705e-01
-4.614534132191381866e-01
-1.063897259660037786e+00
-4.743092638682492312e-01
-1.987300418477340180e-01
-2.728614419336868879e-01
9.269326503491222280e-02
-3.334647102155975651e-02
-7.313832075873594185e-01
5.216593864638321282e-02
7.804605238612014051e-02
-7.664341149968573186e-01
-8.688300994797555354e-01
-2.564631444826467321e-01
1.021407172294793581e-01
-1.084313041611539852e-01
-5.973268817243286843e-01
-4.415988680957608215e-01
-5.106306024101859853e-01
5.429410916441634871e-01
7.503979786150895281e-02
6.811898230297397383e-02
-1.850333285756723178e+00
-4.769891677567726918e-01
-3.121662519997474017e-01
2.270206801342244951e-01
-2.836665120502059323e-01
-9.065477455212854752e-01
-4.906807839304990759e-01
-2.560975697756000258e-02
-7.354550620938065109e-01
3.979905892305630188e-01
1.399893594507403360e+00
5.237441128646662669e-01
5.762476667927741297e-02
-1.245332857514089286e-01
4.748470645733168100e-02
-9.226356846054984961e-01
-1.419580811614907123e+00
-8.221706096155922960e-01
-9.514422659487289380e-01
2.280053847805505463e-01
-5.538391701848761617e-01
-1.590341575957401998e+00
2.438911582609778750e-01
-1.621316150026222147e-01
-1.065196038254778488e+00
4.466424329904336021e-01
2.084671822424140342e-01
-1.548179991607716355e+00
-1.664058240157347823e-01
-1.333568819060480415e+00
-3.586351560862623411e-01
-2.829295755496282205e-01
-1.266995772950877119e-01
-3.554003622688107766e-01
1.753534182091202528e-02
4.145976600384987942e-01
5.106135145278488663e-01
7.837753314736793930e-01
-4.168977556525843564e-01
-5.191663184678131648e-02
2.367051368576599812e-01
1.433764040204447421e-01
-2.565139903760437434e+00
-1.319046536866407049e+00
-3.114397355181088844e-01
-1.585926955732068322e+00
-8.252321535982615197e-01
3.424505816474243125e-01
-1.774008082350716775e-01
-3.550206667115078929e-01
-1.050206345490946741e-01
-1.563294463036670523e+00
-8.499857955558889344e-01
-5.123415436900484732e-01
-8.954699325409534172e-01
-1.222211961347630993e+00
-7.772263759968088825e-01
-1.204402014288968037e-01
1.468552604796388161e-01
2.427393172624451312e-01
2.117747871190154008e-01
-1.258589179657003676e+00
-2.393286379890942894e-01
4.824343777584426118e-01
-1.101738574782159086e+00
-5.914018651303419860e-01
-1.053270734648564660e-01
8.436240606748969251e-01
1.207890256286929809e-01
-6.817192413797177331e-01
4.095003450396608735e-01
2.690264715952381813e-01
-1.145426152856264590e+00
-1.032685069983259707e+00
-5.753172910922250693e-01
-3.468266174259725387e-01
3.707466978251196532e-01
-1.384596597089344794e-01
3.702786840574626703e-01
-5.171266080524175024e-01
-9.014373116145583120e-01
4.091762610106502440e-01
-1.064898051860585060e+00
-7.531838680750031489e-01
1.641437306973863863e-01
5.608886780160108471e-02
4.647656123542925899e-01
3.163175576164277136e-01
1.788667446154370566e-01
3.492240425831979467e-01
3.857708525368034880e-01
3.325207008949425669e-01
5.399748981360982247e-01
1.752404436472559113e-01
-9.666235617095833565e-02
1.608986390689696733e-01
-1.152033069805532689e-01
1.757590332680838974e-01
-6.579550528288188871e-02
-9.345074083530273690e-01
-9.717376959977679363e-01
-2.788298253185488296e-01
-2.526785347639999291e+00
-5.566550204441896854e-01
-2.846512514000453797e-01
3.655274693577500456e-01
-5.669637526801722949e-01
-1.159559103198795349e-01
nan
1.880527926232652969e-01
-1.041246794725980473e+00
1.373836630657043478e-01
-8.920405282859013019e-01
-9.023087448651208042e-01
-9.154963191249130272e-01
-1.790578094134088527e+00
-1.320437273852452797e+00
-1.593905800301659736e+00
-1.385473122928206680e+00
-9.261606578477943330e-01
-6.776178412438835785e-01
2.215124805956533438e-01
9.540405520842457077e-02
-1.034021844077458036e-01
-4.034763694592628513e-01
-1.068132015199704021e+00
-1.474313133412118004e+00
-2.673765293483858496e-01
-8.183520583987436980e-01
-2.657785055921249029e-01
2.027211960357612752e-01
1.376752039300606079e-01
-1.785256451569731340e+00
2.083545616064632622e-01
-3.704666199526907011e-01
7.071125546308553167e-01
-2.180083517055310671e-01
-9.032849550239184511e-02
-3.753428697943727022e-01
2.138303335770882774e-01
3.705035980535583695e-01
1.581035666362006972e-02
4.177810064979636806e-02
-4.077042253604119537e-01
4.246983566274963734e-02
3.903242321998821596e-01
-1.859900230520884212e-01
-6.475530942165315107e-01
2.755063262485462627e-01
-2.312282299710819444e-01
-3.103729237143265096e-01
-2.547568863859894783e-01
-6.896369150178516261e-01
7.371878508027592813e-01
-3.109016749755624254e-01
-9.696639602107643974e-01
-1.343282180711344420e+00
-1.415647992603053629e+00
-1.391944941787625956e+00
7.939987707979684339e-01
-8.220386454545151045e-01
-1.625612204289756502e+00
-9.435673629135999940e-01
-1.494977414089838641e+00
-1.693420484206146215e+00
-3.516441128086696399e-01
-1.334623527518720598e+00
1.281212582714261472e-01
-4.074888930145528776e-01
-3.941865739340775776e-01
-1.552211094217710030e-01
1.085703207123993597e-01
9.288816348191390737e-02
-6.017228289760386817e-01
-2.075145120792811215e-01
3.118370632375314089e-01
-5.151768127977279788e-01
-1.110104398176366081e+00
-9.071465112401548847e-01
3.408295743118613386e-01
-5.530391703935667591e-01
nan
-7.822532525612619914e-01
-2.580294502700368753e+00
4.585899136242238550e-02
6.255639561461470155e-01
-1.833836739982856789e+00
-1.260019397063162350e+00
-8.886556378375188858e-01
-1.076982875028195397e-01
4.003392965122488656e-01
6.157643041232218062e-01
6.685745582982375312e-01
7.370027570516582971e-01
3.544520814813033605e-01
-2.536889673173360560e+00
-1.260533095236746337e-01
-3.385145533533019391e-01
3.909862294262531068e-01
-5.723594690895721787e-02
-5.044599724696544607e-01
-3.083511155534799375e-01
1.406307846010790112e-02
-9.218812503736807315e-03
2.935069690943089005e-01
-5.470122175934620801e-01
-5.796604185284048860e-01
-9.124681193421442238e-01
-2.046264563366825051e+00
-6.174012467884298916e-01
1.202797076348527117e-01
-1.450563397413918043e+00
-6.400129434278333251e-01
-8.957604819143144548e-01
-6.639773129315762468e-01
6.822378100122622469e-02
-2.515610995065822308e+00
9.500711577270992692e-02
1.139889135141613913e-01
-3.274671771695134570e-01
-6.299532568769347085e-01
3.921884821570217894e-01
1.801150811075711844e-01
-8.793242065245572281e-01
-7.076635191110070000e-02
-9.465473973177335187e-02
-1.781825443108108198e-01
4.174157251157443738e-01
2.467889393946334775e-01
-2.014302323073845769e-01
3.873297525137347486e-01
4.287599105114151543e-01
-8.291043417004734239e-01
1.189814421318287907e-01
-9.273469399911802302e-01
2.920087102398788784e-02
-3.101582823178548609e-01
-3.831846586025767221e-01
-4.088540354549178302e-01
1.028819472000266771e-01
9.221065381994882904e-01
-6.491295942936595731e-01
-2.963503321111528033e-01
-1.019948499113413343e+00
3.244552707838063155e-01
4.194821423038314623e-01
2.061553007644607582e-01
-2.028663117342671129e-01
-4.831195921882128763e-01
1.178624831176913884e-01
-1.563949277884590927e-02
-5.225467425037003677e-01
-1.332495413832809061e-01
4.218704018434451530e-01
-4.371306742407846668e-01
1.147683196607196116e-01
-3.998431642070757741e-01
-5.746371183830256690e-01
-3.595809593127742843e-01
8.045412696833949273e-02
-2.782521174553295729e-01
2.217692003003041493e-02
3.967702500714112013e-01
-8.345869971587799307e-01
-5.529761289764720811e-01
2.960457122176076705e-01
-5.629339445690522137e-01
2.813798625783147100e-01
1.462407744554062583e-01
2.056719059907333169e-01
1.969668284959202875e-01
1.817851790278201540e-01
-1.637431144164001040e-01
3.431054956763004427e-01
2.108587196366001615e-01
-8.283688684030339200e-01
-1.686964665555175658e-01
-1.205072618881235375e-01
2.320299111282346787e-04
-6.389190129599762180e-01
2.386220239715005909e-01
-5.204029834985246517e-01
-1.539568806289716152e+00
-1.804453041883339770e+00
-4.200644598737474644e-01
-2.027457750559248650e-01
-1.452925166772432441e-01
-1.549292172406238066e-01
-3.308353677884724731e-02
2.254434488806725811e-01
-2.532572235703327568e-01
-1.837523370026287850e+00
-1.961113029930924068e+00
-2.402449882422986960e+00
-2.610841145663488350e-01
5.109561069902247149e-02
-9.447725907492520170e-01
4.424477322999516016e-01
-1.139880025139009989e+00
-3.664964682426559706e-01
-8.295408380098240331e-01
-8.580146103705506011e-01
1.847112839799640027e-01
-4.276587026244851181e-02
-5.920934893467013627e-01
-2.790270590319059441e-01
-7.954222702792659305e-01
-2.046390066513631978e-01
-8.516364381555372454e-01
-1.993682135577718340e+00
-3.220969656688604243e-01
-6.538039706427425379e-01
-1.088155024606802801e+00
-8.552148185577218564e-01
-6.103007838863084428e-02
-3.117935626421386788e-02
-7.783799563170988867e-01
3.759906033154709060e-01
-5.490674284028779217e-01
-2.697561531484958808e-01
1.918925935097130428e-02
-4.940151748568615830e-01
3.415838142197588634e-01
1.409329472252219384e+00
-1.993204174472298640e-01
4.084965262667999975e-01
-1.132617430454950780e+00
-5.947491513394035367e-01
2.355245457438743389e-02
1.431969229651183229e-01
-3.541405269748580942e-01
-3.960788186700685554e-01
-1.066570971299453774e+00
-3.797586538012933666e-01
-2.441313764004524045e-01
-3.091368730822051103e-01
-5.004270636676887429e-01
-1.885095149901922840e+00
2.352958090749867892e-01
-4.779919986752060312e-01
2.087119405473351202e-02
1.866062637085402209e-01
-1.196049856441187220e+00
-1.619726306118388637e-01
-1.671448562919920500e-01
5.997859722416132300e-01
-8.931747300422333558e-01
1.598556788613877677e-01
-1.725929405274485573e-01
6.016655713634276870e-01
-6.794429952392769256e-02
-7.149829968793663948e-01
2.730382355459504695e-01
-4.443279255468394751e-01
-5.064389505792902396e-02
-1.467372997493101294e-01
-8.069682189999978217e-01
-4.812756891509623602e-01
-1.699137239670405197e-01
-2.417092182712050341e-01
1.924087562404739049e-01
-1.095528542459834442e+00
3.788427966829875926e-01
-8.593352806814130718e-01
-4.357016760483777840e-01
-2.493406030517138383e+00
-6.189048289108288747e-01
9.814162228230570439e-02
3.099850045925879316e-01
1.929976301745219835e-01
1.400172454892095519e+00
1.398338181473885930e-02
7.295237177961318153e-02
-2.287192035104305965e-01
-8.152520922586209418e-01
-1.320603305486089951e+00
-1.428681145477925352e+00
-1.743361778559470165e+00
-1.810651014561079686e+00
-1.871370861437928301e+00
-1.776080685449518359e+00
-1.678339997857147603e+00
2.601093014032600514e-01
-1.209436886641893416e+00
1.008255807445506275e-01
3.919796990976334161e-01
-6.852670381495382657e-01
-1.177727854607136138e+00
-9.434343927093897797e-01
1.861450994899742084e-01
-2.056600295651244414e-01
3.248187684329807423e-01
1.041394151139625468e-01
5.582090868943362372e-01
2.224393644114241730e-01
2.856478799950169511e-01
7.615125604429777428e-02
6.099678283115255173e-01
-2.224062118109882136e-01
-4.610438398163297508e-02
-3.943954471991023003e-01
-1.591149524585749431e+00
-8.831333850097935478e-01
-1.570224974086088743e+00
-1.505483827409785924e+00
-1.094570996713203570e+00
-1.277060763639932706e+00
-9.054560984418473790e-01
-1.765104383628130380e+00
-1.660665625784052857e+00
-1.012457868985770615e+00
-7.852482762965571350e-01
-4.426368254036491257e-01
-2.093119042466272950e-01
-2.299988227504784835e-02
-4.290390540922290330e-01
-4.821241870126545884e-03
1.936845098768201706e-03
-4.825453342731907402e-01
-1.018390255889908946e+00
-1.915705479768933239e-01
-5.704338150435024346e-01
-6.745576957278927033e-01
-1.213359062210640493e+00
-1.328063959638442704e+00
-5.156993626700917543e-01
-3.957393696198146515e-01
1.940720718455007932e-01
-4.265856125266198617e-01
-1.116231364578993190e+00
-1.171308899205548260e+00
-6.590946845840012225e-01
-7.687651012350715796e-02
-3.823249222639278910e-01
3.586361388366203495e-02
-1.026307647224755648e+00
-1.602601188968707513e+00
1.557786767005257811e-01
6.490440721999563012e-02
-4.533259780526379679e-01
-2.809482587432819006e-02
8.567551008397221446e-02
3.901914068168635397e-01
-2.367674724232754213e-01
6.153450493574494917e-01
-1.811333299795269414e-01
-6.385081690856984071e-01
2.082524907631330691e-01
-4.474170762249500555e-02
3.475054774777132649e-01
2.426238090042843465e-01
3.649600529513056801e-01
-1.209652553723725293e-01
3.937128654365014691e-01
-2.499406936244669697e-01
4.507457589084454819e-01
3.662087580039744550e-01
-9.217799263384361952e-01
-4.191535339174706776e-01
-2.632249490570718886e-01
2.912384830879281017e-01
1.367930289787696319e-01
4.030553857313147192e-01
-2.912297295368062588e-01
2.081995177059735025e-01
-6.204900397315955551e-01
7.126431972459167097e-02
-1.093399380199403748e+00
-2.904333419000483252e-01
-1.441113150899095696e-01
-9.113789806727988774e-01
-7.725056123445245282e-01
-4.359045070948214806e-01
-1.606562373801664334e-01
-3.800116531303973644e-01
-2.539146866232955713e+00
-6.830430003264248429e-02
-9.470605481187972519e-01
-5.778291513574981275e-01
-1.077759200540165052e+00
-1.516555503435059293e+00
-1.423517671369751270e+00
-2.474181971045914807e-01
-1.645108278539700319e-01
-3.397525482416533515e-01
-1.871210438753883265e+00
-7.987172235391913899e-01
-1.517040273474789203e+00
-2.581881491652118221e-01
-2.098326756915726010e-01
-1.461292470111468678e+00
-8.225988240338046875e-01
-5.554365015161571995e-01
-5.190119094626358676e-01
-1.053184107651388590e+00
-8.850152198023653050e-01
4.326657278646672822e-01
-3.935936887762150893e-01
-6.401455859785406544e-01
-3.139602705986392905e-01
2.997153882518526213e-01
1.918911542634895717e-01
5.204251278246021517e-01
-3.122931306660631234e-01
-5.645594544534858761e-01
-9.177650064470042890e-02
1.666143311561489593e-01
-2.391847312553777027e-01
-1.913074770319599383e-01
-2.201746572979792760e-01
-1.303960966082263084e+00
-2.853068097131778447e-01
-2.031114292546760680e+00
-1.242398701637118963e+00
6.096437165112457146e-01
-1.193198861840374381e+00
-3.222517053616343052e-02
-1.035423105626398721e+00
-9.048796252577788746e-01
-3.589182720647471903e-01
-4.188848262326014260e-01
3.710880004670806809e-01
-2.746192397559700793e-01
-4.144500553569142043e-01
4.550093186611465779e-01
-9.471327541555295271e-03
-2.259670567150687259e-01
4.081152329645071353e-01
-3.851087483493213087e-02
-5.866361668489041836e-01
-1.094185560796235857e+00
4.387458445493466752e-01
-1.783460161691064139e+00
-9.902257827387984657e-01
2.084672659678464268e-01
5.101298311835189558e-02
-1.482499175565284100e+00
-8.312713377745097887e-01
-1.088028821203886221e+00
-2.830620554280197654e-01
-1.076187000780747471e+00
-6.953359398024872018e-01
5.266408499802203991e-02
-2.901234575965636608e-01
-9.841929788786392130e-01
-7.721199828390403752e-01
-9.114804408670511560e-01
2.845884272357557809e-01
-7.936656171244731439e-01
-9.404339295496914053e-01
-9.595982298922574039e-01
-9.714554359240007431e-01
-8.644679587901964446e-01
-5.590442457331676884e-01
-1.011249907693144046e+00
-7.855803557627158429e-02
-3.685956576860888179e-01
-4.338880627740451801e-01
-6.291919869362897488e-01
-4.204200084312137431e-01
4.956695768226141441e-01
-6.509154291500313105e-01
3.258391659594178646e-01
8.899200854624539359e-02
-6.424040927600975504e-02
1.506329841910524769e-01
8.003497597080259929e-02
-1.037961134086091031e+00
-4.255741381755502317e-01
3.261702767382114176e-01
-3.857230953230212367e-01
-5.745009263745888273e-01
-4.117912090156654048e-01
-3.966823695320020327e-01
-8.965767400627898676e-01
-3.853644516843036660e-01
-2.657193209346632792e-02
-2.258464652289338404e-01
3.898520806924007237e-02
-5.313654960577273156e-01
2.270468517560670363e-01
2.012370821937863874e-01
2.273625167893099375e-01
1.885154066152637531e-02
-5.655011627812872588e-01
-7.335684423446099389e-01
-1.568378818081416881e+00
-1.620423245900565856e+00
-5.337408167808934678e-01
-7.854673775655134360e-01
-1.525018858200514749e-01
1.412003889684675606e+00
-3.060908511567856927e-01
-8.094783797130616909e-01
-1.175579656998692935e+00
-4.496970180422910635e-01
-5.944534260829067440e-01
-5.815277284314106510e-01
9.040712471787964999e-01
-1.187649719953812077e+00
-5.622524315023421648e-01
-1.883300315589221841e+00
-6.846247799426479208e-01
-1.771735037467306595e-01
-3.006164928139341552e-01
-1.351306700547990403e+00
-3.093545326188608668e-01
5.632297272984392311e-01
-8.405112422845840703e-01
-1.920219163394531803e+00
-6.068794587176112865e-01
-9.381386516686637256e-01
-5.797028696853097074e-01
-4.805750961833511054e-02
-2.549415537599139192e+00
7.766911882963208058e-02
-3.949764205643982451e-01
-1.395472534425834299e+00
-8.509374659067169278e-01
3.364665701103575213e-01
4.401802881771783582e-01
-1.199378429032671445e+00
-6.947525776173222312e-01
-2.041488871089528201e-01
-5.665139479607625428e-02
2.882322698211498002e-01
-5.269905649912213219e-01
-9.076597490326603346e-01
-1.377413219071134121e+00
1.589699884376164774e-01
-1.107306230232932176e+00
-1.028095060030861818e+00
-1.106746191660782141e+00
-6.261023670025454013e-01
2.491492519760451774e-01
-3.373662186798120910e-01
-1.006207002461622924e-01
-2.073601765067352998e-01
3.635202586697206528e-01
-4.204124667417228345e-01
-1.481736917675187337e+00
6.950170552450098127e-02
-1.413927905947906405e+00
-5.327533063539917624e-01
-5.865929532765298271e-01
1.590585130090480803e-01
-6.890592397169811312e-01
-1.641780523948573878e+00
-1.563588071081025266e+00
-1.865313499046594936e+00
-1.548992750166005017e+00
-1.720629422054090529e+00
-5.006682385493587129e-01
-1.533275006586107159e+00
-2.024510464335465887e+00
-1.320335658432875370e+00
-8.791515065181543243e-02
-1.047873217172482288e-02
5.248968667176566738e-01
6.315391897251758369e-02
2.980724134713305107e-01
1.442937911777374127e-01
